<?xml version="1.0"?>
<opencv_storage>
<cascade>
  <stageType>BOOST</stageType>
  <featureType>HAAR</featureType>
  <height>20</height>
  <width>20</width>
  <stageParams>
    <boostType>GAB</boostType>
    <minHitRate>9.9500000476837158e-01</minHitRate>
    <maxFalseAlarm>5.0000000000000000e-01</maxFalseAlarm>
    <weightTrimRate>9.4999999999999996e-01</weightTrimRate>
    <maxDepth>1</maxDepth>
    <maxWeakCount>100</maxWeakCount></stageParams>
  <featureParams>
    <maxCatCount>0</maxCatCount>
    <featSize>1</featSize>
    <mode>BASIC</mode></featureParams>
  <stageNum>17</stageNum>
  <stages>
    <!-- stage 0 -->
    <_>
      <maxWeakCount>5</maxWeakCount>
      <stageThreshold>-1.6267668008804321e+00</stageThreshold>
      <weakClassifiers>
        <_>
          <internalNodes>
            0 -1 75 -2.7982335537672043e-02</internalNodes>
          <leafValues>
            3.1313130259513855e-01 -8.8636362552642822e-01</leafValues></_>
        <_>
          <internalNodes>
            0 -1 18 -1.3546628877520561e-02</internalNodes>
          <leafValues>
            4.4398811459541321e-01 -9.5677888393402100e-01</leafValues></_>
        <_>
          <internalNodes>
            0 -1 8 4.0817245841026306e-02</internalNodes>
          <leafValues>
            -6.0668736696243286e-01 5.6726056337356567e-01</leafValues></_>
        <_>
          <internalNodes>
            0 -1 80 3.1189244240522385e-02</internalNodes>
          <leafValues>
            -7.0701575279235840e-01 4.5986476540565491e-01</leafValues></_>
        <_>
          <internalNodes>
            0 -1 63 1.6352919919881970e-04</internalNodes>
          <leafValues>
            3.6319831013679504e-01 -9.2791759967803955e-01</leafValues></_></weakClassifiers></_>
    <!-- stage 1 -->
    <_>
      <maxWeakCount>5</maxWeakCount>
      <stageThreshold>-1.4979262351989746e+00</stageThreshold>
      <weakClassifiers>
        <_>
          <internalNodes>
            0 -1 84 -3.2690048217773438e-02</internalNodes>
          <leafValues>
            5.0413221120834351e-01 -7.2494173049926758e-01</leafValues></_>
        <_>
          <internalNodes>
            0 -1 32 -2.8266534209251404e-03</internalNodes>
          <leafValues>
            3.1701120734214783e-01 -8.7090981006622314e-01</leafValues></_>
        <_>
          <internalNodes>
            0 -1 12 5.4235230199992657e-03</internalNodes>
          <leafValues>
            -8.5423654317855835e-01 3.3236593008041382e-01</leafValues></_>
        <_>
          <internalNodes>
            0 -1 46 -1.9001170992851257e-02</internalNodes>
          <leafValues>
            4.1670218110084534e-01 -7.8427731990814209e-01</leafValues></_>
        <_>
          <internalNodes>
            0 -1 39 5.6733265519142151e-03</internalNodes>
          <leafValues>
            -5.6724345684051514e-01 5.4851812124252319e-01</leafValues></_></weakClassifiers></_>
    <!-- stage 2 -->
    <_>
      <maxWeakCount>4</maxWeakCount>
      <stageThreshold>-8.1170725822448730e-01</stageThreshold>
      <weakClassifiers>
        <_>
          <internalNodes>
            0 -1 68 5.4399393498897552e-02</internalNodes>
          <leafValues>
            -6.5811967849731445e-01 7.0731705427169800e-01</leafValues></_>
        <_>
          <internalNodes>
            0 -1 79 -9.5845665782690048e-03</internalNodes>
          <leafValues>
            5.0628948211669922e-01 -5.7386827468872070e-01</leafValues></_>
        <_>
          <internalNodes>
            0 -1 25 -8.9701404795050621e-04</internalNodes>
          <leafValues>
            2.7772179245948792e-01 -9.5144563913345337e-01</leafValues></_>
        <_>
          <internalNodes>
            0 -1 24 -6.3568265177309513e-03</internalNodes>
          <leafValues>
            -8.9886450767517090e-01 2.9156857728958130e-01</leafValues></_></weakClassifiers></_>
    <!-- stage 3 -->
    <_>
      <maxWeakCount>4</maxWeakCount>
      <stageThreshold>-1.0756129026412964e+00</stageThreshold>
      <weakClassifiers>
        <_>
          <internalNodes>
            0 -1 77 -6.2683828175067902e-02</internalNodes>
          <leafValues>
            4.0983605384826660e-01 -7.0093458890914917e-01</leafValues></_>
        <_>
          <internalNodes>
            0 -1 35 -9.6141954418271780e-04</internalNodes>
          <leafValues>
            -9.6493971347808838e-01 2.0334571599960327e-01</leafValues></_>
        <_>
          <internalNodes>
            0 -1 38 -5.7135452516376972e-04</internalNodes>
          <leafValues>
            2.2375501692295074e-01 -9.1368782520294189e-01</leafValues></_>
        <_>
          <internalNodes>
            0 -1 73 7.5685596093535423e-03</internalNodes>
          <leafValues>
            -6.4014476537704468e-01 3.6650633811950684e-01</leafValues></_></weakClassifiers></_>
    <!-- stage 4 -->
    <_>
      <maxWeakCount>5</maxWeakCount>
      <stageThreshold>-1.3607845306396484e+00</stageThreshold>
      <weakClassifiers>
        <_>
          <internalNodes>
            0 -1 70 1.3409849256277084e-02</internalNodes>
          <leafValues>
            -6.5714287757873535e-01 5.1578944921493530e-01</leafValues></_>
        <_>
          <internalNodes>
            0 -1 57 -1.0885194875299931e-02</internalNodes>
          <leafValues>
            2.7816680073738098e-01 -7.9053586721420288e-01</leafValues></_>
        <_>
          <internalNodes>
            0 -1 86 -4.9793817102909088e-02</internalNodes>
          <leafValues>
            6.1716789007186890e-01 -4.4001838564872742e-01</leafValues></_>
        <_>
          <internalNodes>
            0 -1 14 5.9747276827692986e-04</internalNodes>
          <leafValues>
            3.1683459877967834e-01 -8.3782362937927246e-01</leafValues></_>
        <_>
          <internalNodes>
            0 -1 42 3.4453338012099266e-03</internalNodes>
          <leafValues>
            2.9603350162506104e-01 -9.6831881999969482e-01</leafValues></_></weakClassifiers></_>
    <!-- stage 5 -->
    <_>
      <maxWeakCount>4</maxWeakCount>
      <stageThreshold>-7.4153220653533936e-01</stageThreshold>
      <weakClassifiers>
        <_>
          <internalNodes>
            0 -1 69 7.2529442608356476e-02</internalNodes>
          <leafValues>
            -6.1666667461395264e-01 6.5714287757873535e-01</leafValues></_>
        <_>
          <internalNodes>
            0 -1 62 5.0404085777699947e-04</internalNodes>
          <leafValues>
            2.7243000268936157e-01 -7.3130702972412109e-01</leafValues></_>
        <_>
          <internalNodes>
            0 -1 56 1.5661596553400159e-03</internalNodes>
          <leafValues>
            -7.6956105232238770e-01 2.8898775577545166e-01</leafValues></_>
        <_>
          <internalNodes>
            0 -1 1 1.0825380450114608e-03</internalNodes>
          <leafValues>
            -6.5891581773757935e-01 3.7226551771163940e-01</leafValues></_></weakClassifiers></_>
    <!-- stage 6 -->
    <_>
      <maxWeakCount>5</maxWeakCount>
      <stageThreshold>-8.9823669195175171e-01</stageThreshold>
      <weakClassifiers>
        <_>
          <internalNodes>
            0 -1 61 -1.6907699406147003e-02</internalNodes>
          <leafValues>
            6.7741936445236206e-01 -5.9836065769195557e-01</leafValues></_>
        <_>
          <internalNodes>
            0 -1 15 -1.6203612089157104e-02</internalNodes>
          <leafValues>
            2.4148420989513397e-01 -9.2011082172393799e-01</leafValues></_>
        <_>
          <internalNodes>
            0 -1 52 -8.1399828195571899e-03</internalNodes>
          <leafValues>
            2.5587254762649536e-01 -8.5656160116195679e-01</leafValues></_>
        <_>
          <internalNodes>
            0 -1 44 -4.6509727835655212e-02</internalNodes>
          <leafValues>
            -9.9066126346588135e-01 2.0047155022621155e-01</leafValues></_>
        <_>
          <internalNodes>
            0 -1 47 -1.5984058845788240e-03</internalNodes>
          <leafValues>
            -9.6042120456695557e-01 1.6389071941375732e-01</leafValues></_></weakClassifiers></_>
    <!-- stage 7 -->
    <_>
      <maxWeakCount>5</maxWeakCount>
      <stageThreshold>-1.4948359727859497e+00</stageThreshold>
      <weakClassifiers>
        <_>
          <internalNodes>
            0 -1 19 -1.5211149118840694e-02</internalNodes>
          <leafValues>
            5.2499997615814209e-01 -6.2127661705017090e-01</leafValues></_>
        <_>
          <internalNodes>
            0 -1 49 -1.4197026612237096e-03</internalNodes>
          <leafValues>
            2.7153110504150391e-01 -7.8255313634872437e-01</leafValues></_>
        <_>
          <internalNodes>
            0 -1 78 4.0170349180698395e-02</internalNodes>
          <leafValues>
            -6.4860993623733521e-01 3.2880601286888123e-01</leafValues></_>
        <_>
          <internalNodes>
            0 -1 17 -1.4725398272275925e-02</internalNodes>
          <leafValues>
            3.6589533090591431e-01 -7.5600385665893555e-01</leafValues></_>
        <_>
          <internalNodes>
            0 -1 29 6.7098857834935188e-04</internalNodes>
          <leafValues>
            1.9170837104320526e-01 -9.7906607389450073e-01</leafValues></_></weakClassifiers></_>
    <!-- stage 8 -->
    <_>
      <maxWeakCount>5</maxWeakCount>
      <stageThreshold>-1.3679590225219727e+00</stageThreshold>
      <weakClassifiers>
        <_>
          <internalNodes>
            0 -1 59 -4.4291233643889427e-03</internalNodes>
          <leafValues>
            4.8888888210058212e-02 -8.0307692289352417e-01</leafValues></_>
        <_>
          <internalNodes>
            0 -1 34 2.6635179296135902e-02</internalNodes>
          <leafValues>
            -4.3630096316337585e-01 6.0437738895416260e-01</leafValues></_>
        <_>
          <internalNodes>
            0 -1 53 5.5687304120510817e-04</internalNodes>
          <leafValues>
            2.4457968771457672e-01 -8.8722461462020874e-01</leafValues></_>
        <_>
          <internalNodes>
            0 -1 82 -2.6103228330612183e-02</internalNodes>
          <leafValues>
            3.3236661553382874e-01 -6.4158302545547485e-01</leafValues></_>
        <_>
          <internalNodes>
            0 -1 50 -1.3905032537877560e-03</internalNodes>
          <leafValues>
            3.8769268989562988e-01 -5.8354365825653076e-01</leafValues></_></weakClassifiers></_>
    <!-- stage 9 -->
    <_>
      <maxWeakCount>5</maxWeakCount>
      <stageThreshold>-9.6372389793395996e-01</stageThreshold>
      <weakClassifiers>
        <_>
          <internalNodes>
            0 -1 85 -3.7406660616397858e-02</internalNodes>
          <leafValues>
            8.2222223281860352e-01 -5.6831681728363037e-01</leafValues></_>
        <_>
          <internalNodes>
            0 -1 11 -8.3507627248764038e-02</internalNodes>
          <leafValues>
            -1. 1.4033681154251099e-01</leafValues></_>
        <_>
          <internalNodes>
            0 -1 54 6.1099533922970295e-04</internalNodes>
          <leafValues>
            1.8668113648891449e-01 -9.4018644094467163e-01</leafValues></_>
        <_>
          <internalNodes>
            0 -1 48 -1.2377467006444931e-02</internalNodes>
          <leafValues>
            2.4127210676670074e-01 -8.2173162698745728e-01</leafValues></_>
        <_>
          <internalNodes>
            0 -1 55 9.1864221030846238e-04</internalNodes>
          <leafValues>
            2.0211592316627502e-01 -9.6369713544845581e-01</leafValues></_></weakClassifiers></_>
    <!-- stage 10 -->
    <_>
      <maxWeakCount>6</maxWeakCount>
      <stageThreshold>-1.4314339160919189e+00</stageThreshold>
      <weakClassifiers>
        <_>
          <internalNodes>
            0 -1 40 -2.3631744086742401e-02</internalNodes>
          <leafValues>
            3.9784947037696838e-01 -6.2800872325897217e-01</leafValues></_>
        <_>
          <internalNodes>
            0 -1 43 -5.0635583465918899e-04</internalNodes>
          <leafValues>
            -8.6449277400970459e-01 2.0754030346870422e-01</leafValues></_>
        <_>
          <internalNodes>
            0 -1 74 -8.1299748271703720e-03</internalNodes>
          <leafValues>
            6.2116819620132446e-01 -3.7213164567947388e-01</leafValues></_>
        <_>
          <internalNodes>
            0 -1 66 4.5096277608536184e-04</internalNodes>
          <leafValues>
            -4.1921541094779968e-01 5.1073831319808960e-01</leafValues></_>
        <_>
          <internalNodes>
            0 -1 27 2.0033389329910278e-02</internalNodes>
          <leafValues>
            3.1984823942184448e-01 -7.7058100700378418e-01</leafValues></_>
        <_>
          <internalNodes>
            0 -1 5 -4.5442339032888412e-03</internalNodes>
          <leafValues>
            4.9582922458648682e-01 -4.6073344349861145e-01</leafValues></_></weakClassifiers></_>
    <!-- stage 11 -->
    <_>
      <maxWeakCount>6</maxWeakCount>
      <stageThreshold>-1.2408857345581055e+00</stageThreshold>
      <weakClassifiers>
        <_>
          <internalNodes>
            0 -1 8 5.3911708295345306e-02</internalNodes>
          <leafValues>
            -7.0780855417251587e-01 2.0261438190937042e-01</leafValues></_>
        <_>
          <internalNodes>
            0 -1 65 5.7765364181250334e-04</internalNodes>
          <leafValues>
            -5.6739968061447144e-01 3.4572431445121765e-01</leafValues></_>
        <_>
          <internalNodes>
            0 -1 37 -2.0915511995553970e-03</internalNodes>
          <leafValues>
            2.1073795855045319e-01 -9.0180671215057373e-01</leafValues></_>
        <_>
          <internalNodes>
            0 -1 31 3.3253761939704418e-03</internalNodes>
          <leafValues>
            2.4373111128807068e-01 -8.1882530450820923e-01</leafValues></_>
        <_>
          <internalNodes>
            0 -1 67 -2.5047599337995052e-03</internalNodes>
          <leafValues>
            5.4133129119873047e-01 -4.2068558931350708e-01</leafValues></_>
        <_>
          <internalNodes>
            0 -1 36 1.0214234702289104e-02</internalNodes>
          <leafValues>
            2.4127876758575439e-01 -9.1258490085601807e-01</leafValues></_></weakClassifiers></_>
    <!-- stage 12 -->
    <_>
      <maxWeakCount>5</maxWeakCount>
      <stageThreshold>-1.0605844259262085e+00</stageThreshold>
      <weakClassifiers>
        <_>
          <internalNodes>
            0 -1 7 1.9003216177225113e-02</internalNodes>
          <leafValues>
            -7.9421222209930420e-01 -1.2552301399409771e-02</leafValues></_>
        <_>
          <internalNodes>
            0 -1 28 1.5655979514122009e-03</internalNodes>
          <leafValues>
            1.2666147947311401e-01 -9.6015870571136475e-01</leafValues></_>
        <_>
          <internalNodes>
            0 -1 33 1.3343553291633725e-03</internalNodes>
          <leafValues>
            -5.9264570474624634e-01 3.2440447807312012e-01</leafValues></_>
        <_>
          <internalNodes>
            0 -1 45 -9.8265544511377811e-04</internalNodes>
          <leafValues>
            -7.7313071489334106e-01 2.4990746378898621e-01</leafValues></_>
        <_>
          <internalNodes>
            0 -1 41 9.2688354197889566e-04</internalNodes>
          <leafValues>
            1.9108286499977112e-01 -8.9596498012542725e-01</leafValues></_></weakClassifiers></_>
    <!-- stage 13 -->
    <_>
      <maxWeakCount>5</maxWeakCount>
      <stageThreshold>-1.0610997676849365e+00</stageThreshold>
      <weakClassifiers>
        <_>
          <internalNodes>
            0 -1 21 9.7922217100858688e-03</internalNodes>
          <leafValues>
            -6.6046512126922607e-01 2.8333333134651184e-01</leafValues></_>
        <_>
          <internalNodes>
            0 -1 2 7.6354667544364929e-03</internalNodes>
          <leafValues>
            -4.6439793705940247e-01 5.6387621164321899e-01</leafValues></_>
        <_>
          <internalNodes>
            0 -1 26 -9.9358707666397095e-04</internalNodes>
          <leafValues>
            -8.4473067522048950e-01 2.2967328131198883e-01</leafValues></_>
        <_>
          <internalNodes>
            0 -1 4 3.0854423530399799e-03</internalNodes>
          <leafValues>
            -3.6178636550903320e-01 5.7890141010284424e-01</leafValues></_>
        <_>
          <internalNodes>
            0 -1 64 1.1398541973903775e-03</internalNodes>
          <leafValues>
            -8.2239890098571777e-01 2.4200616776943207e-01</leafValues></_></weakClassifiers></_>
    <!-- stage 14 -->
    <_>
      <maxWeakCount>8</maxWeakCount>
      <stageThreshold>-1.5251667499542236e+00</stageThreshold>
      <weakClassifiers>
        <_>
          <internalNodes>
            0 -1 58 6.0064054559916258e-04</internalNodes>
          <leafValues>
            -7.1722364425659180e-01 1.8012422323226929e-01</leafValues></_>
        <_>
          <internalNodes>
            0 -1 60 -7.0744799450039864e-04</internalNodes>
          <leafValues>
            3.0764281749725342e-01 -5.7812947034835815e-01</leafValues></_>
        <_>
          <internalNodes>
            0 -1 3 5.1991119980812073e-02</internalNodes>
          <leafValues>
            -3.0667939782142639e-01 6.8453156948089600e-01</leafValues></_>
        <_>
          <internalNodes>
            0 -1 20 3.6743644159287214e-04</internalNodes>
          <leafValues>
            -4.1080319881439209e-01 4.3926939368247986e-01</leafValues></_>
        <_>
          <internalNodes>
            0 -1 81 1.1327158426865935e-03</internalNodes>
          <leafValues>
            -5.7117062807083130e-01 3.5633304715156555e-01</leafValues></_>
        <_>
          <internalNodes>
            0 -1 30 -7.0398161187767982e-03</internalNodes>
          <leafValues>
            2.4683484435081482e-01 -8.8913112878799438e-01</leafValues></_>
        <_>
          <internalNodes>
            0 -1 9 -8.3911407273262739e-05</internalNodes>
          <leafValues>
            4.0549677610397339e-01 -4.9680295586585999e-01</leafValues></_>
        <_>
          <internalNodes>
            0 -1 0 -2.1811341866850853e-03</internalNodes>
          <leafValues>
            -5.5738329887390137e-01 4.5873501896858215e-01</leafValues></_></weakClassifiers></_>
    <!-- stage 15 -->
    <_>
      <maxWeakCount>7</maxWeakCount>
      <stageThreshold>-9.4001621007919312e-01</stageThreshold>
      <weakClassifiers>
        <_>
          <internalNodes>
            0 -1 71 1.4053266495466232e-02</internalNodes>
          <leafValues>
            -6.0751563310623169e-01 5.7746475934982300e-01</leafValues></_>
        <_>
          <internalNodes>
            0 -1 83 -2.6348672807216644e-02</internalNodes>
          <leafValues>
            7.0629036426544189e-01 -4.5505359768867493e-01</leafValues></_>
        <_>
          <internalNodes>
            0 -1 87 -1.1122843716293573e-03</internalNodes>
          <leafValues>
            4.5738506317138672e-01 -5.3020393848419189e-01</leafValues></_>
        <_>
          <internalNodes>
            0 -1 16 -2.1499071270227432e-02</internalNodes>
          <leafValues>
            2.6328867673873901e-01 -8.5382181406021118e-01</leafValues></_>
        <_>
          <internalNodes>
            0 -1 23 3.9111133664846420e-03</internalNodes>
          <leafValues>
            -3.5993206501007080e-01 7.1464216709136963e-01</leafValues></_>
        <_>
          <internalNodes>
            0 -1 13 -1.7805059906095266e-03</internalNodes>
          <leafValues>
            -1. 2.3497356474399567e-01</leafValues></_>
        <_>
          <internalNodes>
            0 -1 22 -1.3898101169615984e-03</internalNodes>
          <leafValues>
            6.4394831657409668e-01 -3.7356838583946228e-01</leafValues></_></weakClassifiers></_>
    <!-- stage 16 -->
    <_>
      <maxWeakCount>6</maxWeakCount>
      <stageThreshold>-8.8675886392593384e-01</stageThreshold>
      <weakClassifiers>
        <_>
          <internalNodes>
            0 -1 76 -2.9213833622634411e-03</internalNodes>
          <leafValues>
            1. -6.3265305757522583e-01</leafValues></_>
        <_>
          <internalNodes>
            0 -1 6 6.6507235169410706e-04</internalNodes>
          <leafValues>
            -4.2032167315483093e-01 8.1485414505004883e-01</leafValues></_>
        <_>
          <internalNodes>
            0 -1 51 -1.2723470572382212e-03</internalNodes>
          <leafValues>
            7.2916078567504883e-01 -4.4549682736396790e-01</leafValues></_>
        <_>
          <internalNodes>
            0 -1 72 -6.8423978518694639e-04</internalNodes>
          <leafValues>
            -9.9253112077713013e-01 4.1616031527519226e-01</leafValues></_>
        <_>
          <internalNodes>
            0 -1 10 1.2766977772116661e-02</internalNodes>
          <leafValues>
            -4.5961818099021912e-01 8.9487004280090332e-01</leafValues></_>
        <_>
          <internalNodes>
            0 -1 39 4.0150559507310390e-03</internalNodes>
          <leafValues>
            -5.1948708295822144e-01 6.7660057544708252e-01</leafValues></_></weakClassifiers></_></stages>
  <features>
    <_>
      <rects>
        <_>
          0 6 12 2 -1.</_>
        <_>
          6 6 6 2 2.</_></rects>
      <tilted>0</tilted></_>
    <_>
      <rects>
        <_>
          0 6 16 2 -1.</_>
        <_>
          8 6 8 2 2.</_></rects>
      <tilted>0</tilted></_>
    <_>
      <rects>
        <_>
          0 9 4 2 -1.</_>
        <_>
          2 9 2 2 2.</_></rects>
      <tilted>0</tilted></_>
    <_>
      <rects>
        <_>
          1 0 15 4 -1.</_>
        <_>
          1 2 15 2 2.</_></rects>
      <tilted>0</tilted></_>
    <_>
      <rects>
        <_>
          1 7 1 4 -1.</_>
        <_>
          1 9 1 2 2.</_></rects>
      <tilted>0</tilted></_>
    <_>
      <rects>
        <_>
          1 13 4 4 -1.</_>
        <_>
          1 13 2 2 2.</_>
        <_>
          3 15 2 2 2.</_></rects>
      <tilted>0</tilted></_>
    <_>
      <rects>
        <_>
          1 14 2 2 -1.</_>
        <_>
          1 15 2 1 2.</_></rects>
      <tilted>0</tilted></_>
    <_>
      <rects>
        <_>
          2 2 2 10 -1.</_>
        <_>
          2 7 2 5 2.</_></rects>
      <tilted>0</tilted></_>
    <_>
      <rects>
        <_>
          2 3 2 15 -1.</_>
        <_>
          2 8 2 5 3.</_></rects>
      <tilted>0</tilted></_>
    <_>
      <rects>
        <_>
          2 6 6 3 -1.</_>
        <_>
          4 6 2 3 3.</_></rects>
      <tilted>0</tilted></_>
    <_>
      <rects>
        <_>
          3 0 17 2 -1.</_>
        <_>
          3 1 17 1 2.</_></rects>
      <tilted>0</tilted></_>
    <_>
      <rects>
        <_>
          3 4 9 11 -1.</_>
        <_>
          6 4 3 11 3.</_></rects>
      <tilted>0</tilted></_>
    <_>
      <rects>
        <_>
          3 4 8 6 -1.</_>
        <_>
          3 7 8 3 2.</_></rects>
      <tilted>0</tilted></_>
    <_>
      <rects>
        <_>
          3 5 7 4 -1.</_>
        <_>
          3 7 7 2 2.</_></rects>
      <tilted>0</tilted></_>
    <_>
      <rects>
        <_>
          3 6 6 3 -1.</_>
        <_>
          5 6 2 3 3.</_></rects>
      <tilted>0</tilted></_>
    <_>
      <rects>
        <_>
          3 6 6 8 -1.</_>
        <_>
          6 6 3 8 2.</_></rects>
      <tilted>0</tilted></_>
    <_>
      <rects>
        <_>
          3 6 6 10 -1.</_>
        <_>
          6 6 3 10 2.</_></rects>
      <tilted>0</tilted></_>
    <_>
      <rects>
        <_>
          3 7 4 8 -1.</_>
        <_>
          5 7 2 8 2.</_></rects>
      <tilted>0</tilted></_>
    <_>
      <rects>
        <_>
          3 8 6 6 -1.</_>
        <_>
          6 8 3 6 2.</_></rects>
      <tilted>0</tilted></_>
    <_>
      <rects>
        <_>
          3 12 2 4 -1.</_>
        <_>
          3 14 2 2 2.</_></rects>
      <tilted>0</tilted></_>
    <_>
      <rects>
        <_>
          3 12 3 2 -1.</_>
        <_>
          3 13 3 1 2.</_></rects>
      <tilted>0</tilted></_>
    <_>
      <rects>
        <_>
          3 12 7 3 -1.</_>
        <_>
          3 13 7 1 3.</_></rects>
      <tilted>0</tilted></_>
    <_>
      <rects>
        <_>
          3 14 2 6 -1.</_>
        <_>
          3 14 1 3 2.</_>
        <_>
          4 17 1 3 2.</_></rects>
      <tilted>0</tilted></_>
    <_>
      <rects>
        <_>
          4 0 9 1 -1.</_>
        <_>
          7 0 3 1 3.</_></rects>
      <tilted>0</tilted></_>
    <_>
      <rects>
        <_>
          4 4 9 2 -1.</_>
        <_>
          7 4 3 2 3.</_></rects>
      <tilted>0</tilted></_>
    <_>
      <rects>
        <_>
          4 4 9 5 -1.</_>
        <_>
          7 4 3 5 3.</_></rects>
      <tilted>0</tilted></_>
    <_>
      <rects>
        <_>
          4 4 6 2 -1.</_>
        <_>
          4 5 6 1 2.</_></rects>
      <tilted>0</tilted></_>
    <_>
      <rects>
        <_>
          4 4 6 8 -1.</_>
        <_>
          4 8 6 4 2.</_></rects>
      <tilted>0</tilted></_>
    <_>
      <rects>
        <_>
          4 5 6 3 -1.</_>
        <_>
          6 5 2 3 3.</_></rects>
      <tilted>0</tilted></_>
    <_>
      <rects>
        <_>
          4 5 6 2 -1.</_>
        <_>
          4 5 3 1 2.</_>
        <_>
          7 6 3 1 2.</_></rects>
      <tilted>0</tilted></_>
    <_>
      <rects>
        <_>
          4 5 6 9 -1.</_>
        <_>
          7 5 3 9 2.</_></rects>
      <tilted>0</tilted></_>
    <_>
      <rects>
        <_>
          4 5 10 1 -1.</_>
        <_>
          9 5 5 1 2.</_></rects>
      <tilted>0</tilted></_>
    <_>
      <rects>
        <_>
          4 7 2 7 -1.</_>
        <_>
          5 7 1 7 2.</_></rects>
      <tilted>0</tilted></_>
    <_>
      <rects>
        <_>
          4 16 5 2 -1.</_>
        <_>
          4 17 5 1 2.</_></rects>
      <tilted>0</tilted></_>
    <_>
      <rects>
        <_>
          5 0 9 4 -1.</_>
        <_>
          5 2 9 2 2.</_></rects>
      <tilted>0</tilted></_>
    <_>
      <rects>
        <_>
          5 4 4 4 -1.</_>
        <_>
          5 6 4 2 2.</_></rects>
      <tilted>0</tilted></_>
    <_>
      <rects>
        <_>
          5 5 2 14 -1.</_>
        <_>
          5 12 2 7 2.</_></rects>
      <tilted>0</tilted></_>
    <_>
      <rects>
        <_>
          5 5 9 5 -1.</_>
        <_>
          8 5 3 5 3.</_></rects>
      <tilted>0</tilted></_>
    <_>
      <rects>
        <_>
          5 12 2 5 -1.</_>
        <_>
          6 12 1 5 2.</_></rects>
      <tilted>0</tilted></_>
    <_>
      <rects>
        <_>
          5 15 3 4 -1.</_>
        <_>
          5 17 3 2 2.</_></rects>
      <tilted>0</tilted></_>
    <_>
      <rects>
        <_>
          6 2 10 4 -1.</_>
        <_>
          6 2 5 2 2.</_>
        <_>
          11 4 5 2 2.</_></rects>
      <tilted>0</tilted></_>
    <_>
      <rects>
        <_>
          6 4 7 2 -1.</_>
        <_>
          6 5 7 1 2.</_></rects>
      <tilted>0</tilted></_>
    <_>
      <rects>
        <_>
          6 5 4 4 -1.</_>
        <_>
          8 5 2 4 2.</_></rects>
      <tilted>0</tilted></_>
    <_>
      <rects>
        <_>
          6 5 6 1 -1.</_>
        <_>
          9 5 3 1 2.</_></rects>
      <tilted>0</tilted></_>
    <_>
      <rects>
        <_>
          6 5 3 12 -1.</_>
        <_>
          6 11 3 6 2.</_></rects>
      <tilted>0</tilted></_>
    <_>
      <rects>
        <_>
          7 3 2 4 -1.</_>
        <_>
          7 5 2 2 2.</_></rects>
      <tilted>0</tilted></_>
    <_>
      <rects>
        <_>
          7 4 5 12 -1.</_>
        <_>
          7 10 5 6 2.</_></rects>
      <tilted>0</tilted></_>
    <_>
      <rects>
        <_>
          7 5 6 1 -1.</_>
        <_>
          9 5 2 1 3.</_></rects>
      <tilted>0</tilted></_>
    <_>
      <rects>
        <_>
          7 6 4 8 -1.</_>
        <_>
          7 10 4 4 2.</_></rects>
      <tilted>0</tilted></_>
    <_>
      <rects>
        <_>
          7 7 1 10 -1.</_>
        <_>
          7 12 1 5 2.</_></rects>
      <tilted>0</tilted></_>
    <_>
      <rects>
        <_>
          7 13 1 6 -1.</_>
        <_>
          7 15 1 2 3.</_></rects>
      <tilted>0</tilted></_>
    <_>
      <rects>
        <_>
          7 13 3 2 -1.</_>
        <_>
          7 14 3 1 2.</_></rects>
      <tilted>0</tilted></_>
    <_>
      <rects>
        <_>
          8 2 2 16 -1.</_>
        <_>
          8 10 2 8 2.</_></rects>
      <tilted>0</tilted></_>
    <_>
      <rects>
        <_>
          8 3 2 3 -1.</_>
        <_>
          8 4 2 1 3.</_></rects>
      <tilted>0</tilted></_>
    <_>
      <rects>
        <_>
          8 4 2 2 -1.</_>
        <_>
          8 5 2 1 2.</_></rects>
      <tilted>0</tilted></_>
    <_>
      <rects>
        <_>
          8 5 2 3 -1.</_>
        <_>
          9 5 1 3 2.</_></rects>
      <tilted>0</tilted></_>
    <_>
      <rects>
        <_>
          8 5 4 4 -1.</_>
        <_>
          8 7 4 2 2.</_></rects>
      <tilted>0</tilted></_>
    <_>
      <rects>
        <_>
          8 6 3 8 -1.</_>
        <_>
          8 10 3 4 2.</_></rects>
      <tilted>0</tilted></_>
    <_>
      <rects>
        <_>
          8 7 1 2 -1.</_>
        <_>
          8 8 1 1 2.</_></rects>
      <tilted>0</tilted></_>
    <_>
      <rects>
        <_>
          8 8 2 4 -1.</_>
        <_>
          8 10 2 2 2.</_></rects>
      <tilted>0</tilted></_>
    <_>
      <rects>
        <_>
          8 13 6 1 -1.</_>
        <_>
          11 13 3 1 2.</_></rects>
      <tilted>0</tilted></_>
    <_>
      <rects>
        <_>
          9 2 6 4 -1.</_>
        <_>
          9 2 3 2 2.</_>
        <_>
          12 4 3 2 2.</_></rects>
      <tilted>0</tilted></_>
    <_>
      <rects>
        <_>
          9 3 2 6 -1.</_>
        <_>
          9 3 1 3 2.</_>
        <_>
          10 6 1 3 2.</_></rects>
      <tilted>0</tilted></_>
    <_>
      <rects>
        <_>
          9 3 2 6 -1.</_>
        <_>
          9 5 2 2 3.</_></rects>
      <tilted>0</tilted></_>
    <_>
      <rects>
        <_>
          9 4 4 7 -1.</_>
        <_>
          11 4 2 7 2.</_></rects>
      <tilted>0</tilted></_>
    <_>
      <rects>
        <_>
          9 7 2 2 -1.</_>
        <_>
          9 8 2 1 2.</_></rects>
      <tilted>0</tilted></_>
    <_>
      <rects>
        <_>
          9 11 1 2 -1.</_>
        <_>
          9 12 1 1 2.</_></rects>
      <tilted>0</tilted></_>
    <_>
      <rects>
        <_>
          10 0 2 3 -1.</_>
        <_>
          10 1 2 1 3.</_></rects>
      <tilted>0</tilted></_>
    <_>
      <rects>
        <_>
          10 0 6 6 -1.</_>
        <_>
          10 2 6 2 3.</_></rects>
      <tilted>0</tilted></_>
    <_>
      <rects>
        <_>
          10 1 9 4 -1.</_>
        <_>
          13 1 3 4 3.</_></rects>
      <tilted>0</tilted></_>
    <_>
      <rects>
        <_>
          10 1 5 3 -1.</_>
        <_>
          10 2 5 1 3.</_></rects>
      <tilted>0</tilted></_>
    <_>
      <rects>
        <_>
          10 2 6 4 -1.</_>
        <_>
          10 2 3 2 2.</_>
        <_>
          13 4 3 2 2.</_></rects>
      <tilted>0</tilted></_>
    <_>
      <rects>
        <_>
          10 5 2 1 -1.</_>
        <_>
          11 5 1 1 2.</_></rects>
      <tilted>0</tilted></_>
    <_>
      <rects>
        <_>
          10 6 4 5 -1.</_>
        <_>
          12 6 2 5 2.</_></rects>
      <tilted>0</tilted></_>
    <_>
      <rects>
        <_>
          11 6 6 3 -1.</_>
        <_>
          11 7 6 1 3.</_></rects>
      <tilted>0</tilted></_>
    <_>
      <rects>
        <_>
          11 7 4 8 -1.</_>
        <_>
          11 11 4 4 2.</_></rects>
      <tilted>0</tilted></_>
    <_>
      <rects>
        <_>
          11 10 2 4 -1.</_>
        <_>
          11 10 1 2 2.</_>
        <_>
          12 12 1 2 2.</_></rects>
      <tilted>0</tilted></_>
    <_>
      <rects>
        <_>
          12 2 8 6 -1.</_>
        <_>
          16 2 4 6 2.</_></rects>
      <tilted>0</tilted></_>
    <_>
      <rects>
        <_>
          12 4 8 14 -1.</_>
        <_>
          12 4 4 7 2.</_>
        <_>
          16 11 4 7 2.</_></rects>
      <tilted>0</tilted></_>
    <_>
      <rects>
        <_>
          12 5 6 4 -1.</_>
        <_>
          12 5 3 2 2.</_>
        <_>
          15 7 3 2 2.</_></rects>
      <tilted>0</tilted></_>
    <_>
      <rects>
        <_>
          12 5 8 12 -1.</_>
        <_>
          12 5 4 6 2.</_>
        <_>
          16 11 4 6 2.</_></rects>
      <tilted>0</tilted></_>
    <_>
      <rects>
        <_>
          12 7 3 3 -1.</_>
        <_>
          13 7 1 3 3.</_></rects>
      <tilted>0</tilted></_>
    <_>
      <rects>
        <_>
          12 7 4 8 -1.</_>
        <_>
          12 11 4 4 2.</_></rects>
      <tilted>0</tilted></_>
    <_>
      <rects>
        <_>
          13 3 3 6 -1.</_>
        <_>
          13 5 3 2 3.</_></rects>
      <tilted>0</tilted></_>
    <_>
      <rects>
        <_>
          13 7 2 8 -1.</_>
        <_>
          13 11 2 4 2.</_></rects>
      <tilted>0</tilted></_>
    <_>
      <rects>
        <_>
          13 8 4 4 -1.</_>
        <_>
          13 10 4 2 2.</_></rects>
      <tilted>0</tilted></_>
    <_>
      <rects>
        <_>
          14 3 6 7 -1.</_>
        <_>
          17 3 3 7 2.</_></rects>
      <tilted>0</tilted></_>
    <_>
      <rects>
        <_>
          15 5 2 3 -1.</_>
        <_>
          16 5 1 3 2.</_></rects>
      <tilted>0</tilted></_></features></cascade>
</opencv_storage>
