<?xml version="1.0"?>
<opencv_storage>
<cascade>
  <stageType>BOOST</stageType>
  <featureType>HAAR</featureType>
  <height>20</height>
  <width>20</width>
  <stageParams>
    <boostType>GAB</boostType>
    <minHitRate>9.9500000476837158e-01</minHitRate>
    <maxFalseAlarm>5.0000000000000000e-01</maxFalseAlarm>
    <weightTrimRate>9.4999999999999996e-01</weightTrimRate>
    <maxDepth>1</maxDepth>
    <maxWeakCount>100</maxWeakCount></stageParams>
  <featureParams>
    <maxCatCount>0</maxCatCount>
    <featSize>1</featSize>
    <mode>BASIC</mode></featureParams>
  <stageNum>17</stageNum>
  <stages>
    <!-- stage 0 -->
    <_>
      <maxWeakCount>4</maxWeakCount>
      <stageThreshold>-1.3129713535308838e+00</stageThreshold>
      <weakClassifiers>
        <_>
          <internalNodes>
            0 -1 15 -1.2576015666127205e-02</internalNodes>
          <leafValues>
            5.8704453706741333e-01 -9.4771242141723633e-01</leafValues></_>
        <_>
          <internalNodes>
            0 -1 64 -3.5703584551811218e-02</internalNodes>
          <leafValues>
            4.9666389822959900e-01 -7.8436410427093506e-01</leafValues></_>
        <_>
          <internalNodes>
            0 -1 95 5.8970842510461807e-03</internalNodes>
          <leafValues>
            -6.8511390686035156e-01 4.7584986686706543e-01</leafValues></_>
        <_>
          <internalNodes>
            0 -1 82 2.2207651287317276e-02</internalNodes>
          <leafValues>
            -4.3053787946701050e-01 7.4703878164291382e-01</leafValues></_></weakClassifiers></_>
    <!-- stage 1 -->
    <_>
      <maxWeakCount>6</maxWeakCount>
      <stageThreshold>-1.2816218137741089e+00</stageThreshold>
      <weakClassifiers>
        <_>
          <internalNodes>
            0 -1 49 3.7534423172473907e-02</internalNodes>
          <leafValues>
            -6.6756033897399902e-01 5.8313816785812378e-01</leafValues></_>
        <_>
          <internalNodes>
            0 -1 60 -1.7098182579502463e-03</internalNodes>
          <leafValues>
            -9.4967460632324219e-01 2.6276022195816040e-01</leafValues></_>
        <_>
          <internalNodes>
            0 -1 38 -2.1437893155962229e-04</internalNodes>
          <leafValues>
            2.9623675346374512e-01 -9.1578298807144165e-01</leafValues></_>
        <_>
          <internalNodes>
            0 -1 19 -3.8722727913409472e-03</internalNodes>
          <leafValues>
            -8.7365806102752686e-01 2.1302819252014160e-01</leafValues></_>
        <_>
          <internalNodes>
            0 -1 25 3.5721496678888798e-03</internalNodes>
          <leafValues>
            -5.3495019674301147e-01 5.3795188665390015e-01</leafValues></_>
        <_>
          <internalNodes>
            0 -1 72 1.5463345334865153e-04</internalNodes>
          <leafValues>
            -7.2687488794326782e-01 3.6088329553604126e-01</leafValues></_></weakClassifiers></_>
    <!-- stage 2 -->
    <_>
      <maxWeakCount>5</maxWeakCount>
      <stageThreshold>-1.0462836027145386e+00</stageThreshold>
      <weakClassifiers>
        <_>
          <internalNodes>
            0 -1 52 -1.5240834327414632e-03</internalNodes>
          <leafValues>
            3.1879195570945740e-01 -9.3137252330780029e-01</leafValues></_>
        <_>
          <internalNodes>
            0 -1 101 -4.3698556721210480e-02</internalNodes>
          <leafValues>
            5.3609234094619751e-01 -5.0175702571868896e-01</leafValues></_>
        <_>
          <internalNodes>
            0 -1 33 -8.2767195999622345e-03</internalNodes>
          <leafValues>
            -9.5278221368789673e-01 3.0900943279266357e-01</leafValues></_>
        <_>
          <internalNodes>
            0 -1 20 -3.3762285020202398e-03</internalNodes>
          <leafValues>
            3.4556788206100464e-01 -7.4495059251785278e-01</leafValues></_>
        <_>
          <internalNodes>
            0 -1 16 1.4595614746212959e-02</internalNodes>
          <leafValues>
            -4.2737740278244019e-01 7.0480197668075562e-01</leafValues></_></weakClassifiers></_>
    <!-- stage 3 -->
    <_>
      <maxWeakCount>4</maxWeakCount>
      <stageThreshold>-8.5347872972488403e-01</stageThreshold>
      <weakClassifiers>
        <_>
          <internalNodes>
            0 -1 4 9.2135509476065636e-03</internalNodes>
          <leafValues>
            -6.6666668653488159e-01 4.8275861144065857e-01</leafValues></_>
        <_>
          <internalNodes>
            0 -1 17 -8.6128647672012448e-04</internalNodes>
          <leafValues>
            3.8860127329826355e-01 -8.6929565668106079e-01</leafValues></_>
        <_>
          <internalNodes>
            0 -1 59 -3.8563753478229046e-03</internalNodes>
          <leafValues>
            3.1672483682632446e-01 -7.0727884769439697e-01</leafValues></_>
        <_>
          <internalNodes>
            0 -1 21 1.1265836656093597e-03</internalNodes>
          <leafValues>
            3.0594417452812195e-01 -8.9213818311691284e-01</leafValues></_></weakClassifiers></_>
    <!-- stage 4 -->
    <_>
      <maxWeakCount>6</maxWeakCount>
      <stageThreshold>-7.2143012285232544e-01</stageThreshold>
      <weakClassifiers>
        <_>
          <internalNodes>
            0 -1 43 -4.4835391454398632e-03</internalNodes>
          <leafValues>
            5.0599521398544312e-01 -5.5091381072998047e-01</leafValues></_>
        <_>
          <internalNodes>
            0 -1 102 -3.3842413686215878e-03</internalNodes>
          <leafValues>
            4.6620145440101624e-01 -5.4912531375885010e-01</leafValues></_>
        <_>
          <internalNodes>
            0 -1 81 2.5832215324044228e-02</internalNodes>
          <leafValues>
            -2.9460251331329346e-01 8.3913618326187134e-01</leafValues></_>
        <_>
          <internalNodes>
            0 -1 70 -1.0080847423523664e-03</internalNodes>
          <leafValues>
            3.0032294988632202e-01 -8.5888224840164185e-01</leafValues></_>
        <_>
          <internalNodes>
            0 -1 35 -1.0717618279159069e-03</internalNodes>
          <leafValues>
            -8.7456268072128296e-01 3.1670317053794861e-01</leafValues></_>
        <_>
          <internalNodes>
            0 -1 37 -4.2559383437037468e-03</internalNodes>
          <leafValues>
            -8.8422721624374390e-01 2.0006382465362549e-01</leafValues></_></weakClassifiers></_>
    <!-- stage 5 -->
    <_>
      <maxWeakCount>5</maxWeakCount>
      <stageThreshold>-5.1572573184967041e-01</stageThreshold>
      <weakClassifiers>
        <_>
          <internalNodes>
            0 -1 76 -3.7453980185091496e-03</internalNodes>
          <leafValues>
            2.6821193099021912e-01 -8.2653063535690308e-01</leafValues></_>
        <_>
          <internalNodes>
            0 -1 48 1.1102113639935851e-03</internalNodes>
          <leafValues>
            2.1867984533309937e-01 -8.9183139801025391e-01</leafValues></_>
        <_>
          <internalNodes>
            0 -1 39 -4.3730353936553001e-03</internalNodes>
          <leafValues>
            2.6793634891510010e-01 -7.4980568885803223e-01</leafValues></_>
        <_>
          <internalNodes>
            0 -1 18 -5.6607194710522890e-04</internalNodes>
          <leafValues>
            -9.2800682783126831e-01 1.7445138096809387e-01</leafValues></_>
        <_>
          <internalNodes>
            0 -1 31 -1.7989477142691612e-02</internalNodes>
          <leafValues>
            6.8707782030105591e-01 -3.3449402451515198e-01</leafValues></_></weakClassifiers></_>
    <!-- stage 6 -->
    <_>
      <maxWeakCount>5</maxWeakCount>
      <stageThreshold>-6.0661441087722778e-01</stageThreshold>
      <weakClassifiers>
        <_>
          <internalNodes>
            0 -1 106 -8.9854998514056206e-03</internalNodes>
          <leafValues>
            4.4339624047279358e-01 -5.0000000000000000e-01</leafValues></_>
        <_>
          <internalNodes>
            0 -1 65 2.2137249470688403e-04</internalNodes>
          <leafValues>
            -5.8993780612945557e-01 3.7895065546035767e-01</leafValues></_>
        <_>
          <internalNodes>
            0 -1 53 1.9799382425844669e-03</internalNodes>
          <leafValues>
            2.1370300650596619e-01 -9.6425521373748779e-01</leafValues></_>
        <_>
          <internalNodes>
            0 -1 14 1.0673789074644446e-04</internalNodes>
          <leafValues>
            3.5476553440093994e-01 -7.8564101457595825e-01</leafValues></_>
        <_>
          <internalNodes>
            0 -1 58 7.1362871676683426e-03</internalNodes>
          <leafValues>
            1.9524499773979187e-01 -8.5702329874038696e-01</leafValues></_></weakClassifiers></_>
    <!-- stage 7 -->
    <_>
      <maxWeakCount>7</maxWeakCount>
      <stageThreshold>-6.8888312578201294e-01</stageThreshold>
      <weakClassifiers>
        <_>
          <internalNodes>
            0 -1 6 6.1600876506417990e-04</internalNodes>
          <leafValues>
            -6.4102566242218018e-01 3.3206832408905029e-01</leafValues></_>
        <_>
          <internalNodes>
            0 -1 88 3.2029603607952595e-04</internalNodes>
          <leafValues>
            -4.5306327939033508e-01 4.6251544356346130e-01</leafValues></_>
        <_>
          <internalNodes>
            0 -1 94 -8.1596095697022974e-05</internalNodes>
          <leafValues>
            3.2528859376907349e-01 -5.8099311590194702e-01</leafValues></_>
        <_>
          <internalNodes>
            0 -1 74 -1.4018485089763999e-03</internalNodes>
          <leafValues>
            -8.8860213756561279e-01 2.2533744573593140e-01</leafValues></_>
        <_>
          <internalNodes>
            0 -1 91 2.2227585315704346e-02</internalNodes>
          <leafValues>
            -3.7297147512435913e-01 5.8609956502914429e-01</leafValues></_>
        <_>
          <internalNodes>
            0 -1 63 5.4557330440729856e-04</internalNodes>
          <leafValues>
            -7.4947595596313477e-01 2.4989593029022217e-01</leafValues></_>
        <_>
          <internalNodes>
            0 -1 40 -5.9523881645873189e-04</internalNodes>
          <leafValues>
            1.7601619660854340e-01 -8.2752925157546997e-01</leafValues></_></weakClassifiers></_>
    <!-- stage 8 -->
    <_>
      <maxWeakCount>8</maxWeakCount>
      <stageThreshold>-8.8618510961532593e-01</stageThreshold>
      <weakClassifiers>
        <_>
          <internalNodes>
            0 -1 100 -2.3910146206617355e-02</internalNodes>
          <leafValues>
            3.4538152813911438e-01 -5.6953644752502441e-01</leafValues></_>
        <_>
          <internalNodes>
            0 -1 36 1.1210255324840546e-03</internalNodes>
          <leafValues>
            1.7946301400661469e-01 -9.7675424814224243e-01</leafValues></_>
        <_>
          <internalNodes>
            0 -1 104 4.4347727671265602e-03</internalNodes>
          <leafValues>
            -3.1198465824127197e-01 6.4303380250930786e-01</leafValues></_>
        <_>
          <internalNodes>
            0 -1 7 -6.4700587245170027e-05</internalNodes>
          <leafValues>
            3.8288041949272156e-01 -5.2759945392608643e-01</leafValues></_>
        <_>
          <internalNodes>
            0 -1 2 2.0933974534273148e-02</internalNodes>
          <leafValues>
            -4.1561716794967651e-01 5.2572983503341675e-01</leafValues></_>
        <_>
          <internalNodes>
            0 -1 12 -6.4082550816237926e-03</internalNodes>
          <leafValues>
            -8.7907123565673828e-01 2.2896930575370789e-01</leafValues></_>
        <_>
          <internalNodes>
            0 -1 20 -2.5554592721164227e-03</internalNodes>
          <leafValues>
            2.5262641906738281e-01 -7.3936134576797485e-01</leafValues></_>
        <_>
          <internalNodes>
            0 -1 28 -1.3952041044831276e-02</internalNodes>
          <leafValues>
            4.1392201185226440e-01 -4.7073057293891907e-01</leafValues></_></weakClassifiers></_>
    <!-- stage 9 -->
    <_>
      <maxWeakCount>7</maxWeakCount>
      <stageThreshold>-9.6980679035186768e-01</stageThreshold>
      <weakClassifiers>
        <_>
          <internalNodes>
            0 -1 78 1.1359632480889559e-03</internalNodes>
          <leafValues>
            -4.1871920228004456e-01 4.3147209286689758e-01</leafValues></_>
        <_>
          <internalNodes>
            0 -1 12 -2.8002238832414150e-04</internalNodes>
          <leafValues>
            2.8965297341346741e-01 -6.2075257301330566e-01</leafValues></_>
        <_>
          <internalNodes>
            0 -1 10 -2.8804321773350239e-03</internalNodes>
          <leafValues>
            -7.7943015098571777e-01 2.4350024759769440e-01</leafValues></_>
        <_>
          <internalNodes>
            0 -1 105 8.4624392911791801e-03</internalNodes>
          <leafValues>
            -3.0963960289955139e-01 6.1398655176162720e-01</leafValues></_>
        <_>
          <internalNodes>
            0 -1 8 9.4236675649881363e-03</internalNodes>
          <leafValues>
            -3.0827650427818298e-01 6.0427504777908325e-01</leafValues></_>
        <_>
          <internalNodes>
            0 -1 23 1.3690347783267498e-02</internalNodes>
          <leafValues>
            2.4107593297958374e-01 -9.7392648458480835e-01</leafValues></_>
        <_>
          <internalNodes>
            0 -1 103 -6.4870421774685383e-03</internalNodes>
          <leafValues>
            6.8966585397720337e-01 -3.5581016540527344e-01</leafValues></_></weakClassifiers></_>
    <!-- stage 10 -->
    <_>
      <maxWeakCount>7</maxWeakCount>
      <stageThreshold>-9.1701549291610718e-01</stageThreshold>
      <weakClassifiers>
        <_>
          <internalNodes>
            0 -1 56 -1.7767900601029396e-02</internalNodes>
          <leafValues>
            -8.7356323003768921e-01 2.4281150102615356e-01</leafValues></_>
        <_>
          <internalNodes>
            0 -1 79 2.5362195447087288e-04</internalNodes>
          <leafValues>
            -4.7495910525321960e-01 3.3533060550689697e-01</leafValues></_>
        <_>
          <internalNodes>
            0 -1 51 2.7910331264138222e-03</internalNodes>
          <leafValues>
            2.6825940608978271e-01 -7.3762404918670654e-01</leafValues></_>
        <_>
          <internalNodes>
            0 -1 50 -3.6963968886993825e-04</internalNodes>
          <leafValues>
            -7.4535822868347168e-01 2.3741495609283447e-01</leafValues></_>
        <_>
          <internalNodes>
            0 -1 67 -2.0788751135114580e-04</internalNodes>
          <leafValues>
            -5.8109700679779053e-01 2.9446643590927124e-01</leafValues></_>
        <_>
          <internalNodes>
            0 -1 86 -4.7193234786391258e-03</internalNodes>
          <leafValues>
            2.4300867319107056e-01 -6.4246463775634766e-01</leafValues></_>
        <_>
          <internalNodes>
            0 -1 75 -1.2219592928886414e-02</internalNodes>
          <leafValues>
            -9.2094540596008301e-01 1.5342955291271210e-01</leafValues></_></weakClassifiers></_>
    <!-- stage 11 -->
    <_>
      <maxWeakCount>8</maxWeakCount>
      <stageThreshold>-5.1233947277069092e-01</stageThreshold>
      <weakClassifiers>
        <_>
          <internalNodes>
            0 -1 77 6.0961909184698015e-05</internalNodes>
          <leafValues>
            -5.8528429269790649e-01 3.4930139780044556e-01</leafValues></_>
        <_>
          <internalNodes>
            0 -1 13 -1.7539314925670624e-02</internalNodes>
          <leafValues>
            1.8982936441898346e-01 -8.4330648183822632e-01</leafValues></_>
        <_>
          <internalNodes>
            0 -1 90 -1.1561821447685361e-03</internalNodes>
          <leafValues>
            4.5611450076103210e-01 -4.1658702492713928e-01</leafValues></_>
        <_>
          <internalNodes>
            0 -1 99 1.5260631218552589e-02</internalNodes>
          <leafValues>
            -4.7762233018875122e-01 4.5112898945808411e-01</leafValues></_>
        <_>
          <internalNodes>
            0 -1 5 7.1479487814940512e-05</internalNodes>
          <leafValues>
            -4.9878323078155518e-01 3.6210054159164429e-01</leafValues></_>
        <_>
          <internalNodes>
            0 -1 80 2.7795026544481516e-03</internalNodes>
          <leafValues>
            -2.6699161529541016e-01 6.8816971778869629e-01</leafValues></_>
        <_>
          <internalNodes>
            0 -1 47 -1.1025223648175597e-03</internalNodes>
          <leafValues>
            -9.6592926979064941e-01 1.8440397083759308e-01</leafValues></_>
        <_>
          <internalNodes>
            0 -1 46 4.5950911007821560e-03</internalNodes>
          <leafValues>
            -3.3219113945960999e-01 5.2849453687667847e-01</leafValues></_></weakClassifiers></_>
    <!-- stage 12 -->
    <_>
      <maxWeakCount>8</maxWeakCount>
      <stageThreshold>-9.1687166690826416e-01</stageThreshold>
      <weakClassifiers>
        <_>
          <internalNodes>
            0 -1 84 -1.5767579316161573e-04</internalNodes>
          <leafValues>
            2.5925925374031067e-01 -7.4757283926010132e-01</leafValues></_>
        <_>
          <internalNodes>
            0 -1 71 -7.5005227699875832e-04</internalNodes>
          <leafValues>
            2.0766657590866089e-01 -7.1692001819610596e-01</leafValues></_>
        <_>
          <internalNodes>
            0 -1 92 -1.5610445290803909e-02</internalNodes>
          <leafValues>
            5.5872148275375366e-01 -3.3067923784255981e-01</leafValues></_>
        <_>
          <internalNodes>
            0 -1 85 5.0247786566615105e-04</internalNodes>
          <leafValues>
            1.9904322922229767e-01 -8.7810570001602173e-01</leafValues></_>
        <_>
          <internalNodes>
            0 -1 61 -2.2938931942917407e-04</internalNodes>
          <leafValues>
            -8.2424539327621460e-01 2.0128902792930603e-01</leafValues></_>
        <_>
          <internalNodes>
            0 -1 9 1.9004691392183304e-02</internalNodes>
          <leafValues>
            -4.6866413950920105e-01 3.5504528880119324e-01</leafValues></_>
        <_>
          <internalNodes>
            0 -1 83 1.6490479931235313e-02</internalNodes>
          <leafValues>
            -3.4747239947319031e-01 5.5385345220565796e-01</leafValues></_>
        <_>
          <internalNodes>
            0 -1 89 7.8225566539913416e-04</internalNodes>
          <leafValues>
            -3.4690988063812256e-01 4.7039529681205750e-01</leafValues></_></weakClassifiers></_>
    <!-- stage 13 -->
    <_>
      <maxWeakCount>7</maxWeakCount>
      <stageThreshold>-5.9755444526672363e-01</stageThreshold>
      <weakClassifiers>
        <_>
          <internalNodes>
            0 -1 29 6.4918817952275276e-04</internalNodes>
          <leafValues>
            -3.9903846383094788e-01 4.3229165673255920e-01</leafValues></_>
        <_>
          <internalNodes>
            0 -1 61 2.1646544337272644e-03</internalNodes>
          <leafValues>
            2.0531623065471649e-01 -8.0878365039825439e-01</leafValues></_>
        <_>
          <internalNodes>
            0 -1 54 -2.3995701223611832e-02</internalNodes>
          <leafValues>
            7.2733193635940552e-01 -2.4387633800506592e-01</leafValues></_>
        <_>
          <internalNodes>
            0 -1 97 -6.4788726158440113e-03</internalNodes>
          <leafValues>
            6.5282034873962402e-01 -2.7248427271842957e-01</leafValues></_>
        <_>
          <internalNodes>
            0 -1 96 -4.4046647846698761e-02</internalNodes>
          <leafValues>
            7.4732756614685059e-01 -2.4072323739528656e-01</leafValues></_>
        <_>
          <internalNodes>
            0 -1 45 -3.9535854011774063e-04</internalNodes>
          <leafValues>
            3.3353748917579651e-01 -5.2203702926635742e-01</leafValues></_>
        <_>
          <internalNodes>
            0 -1 27 -5.5540207773447037e-02</internalNodes>
          <leafValues>
            -9.9013930559158325e-01 2.0248396694660187e-01</leafValues></_></weakClassifiers></_>
    <!-- stage 14 -->
    <_>
      <maxWeakCount>8</maxWeakCount>
      <stageThreshold>-1.3270932435989380e+00</stageThreshold>
      <weakClassifiers>
        <_>
          <internalNodes>
            0 -1 34 -2.3752478882670403e-03</internalNodes>
          <leafValues>
            2.5252524018287659e-01 -7.2815531492233276e-01</leafValues></_>
        <_>
          <internalNodes>
            0 -1 42 -9.3486877158284187e-03</internalNodes>
          <leafValues>
            3.6599823832511902e-01 -5.1592254638671875e-01</leafValues></_>
        <_>
          <internalNodes>
            0 -1 66 2.7406299486756325e-03</internalNodes>
          <leafValues>
            -5.8652496337890625e-01 2.7338856458663940e-01</leafValues></_>
        <_>
          <internalNodes>
            0 -1 68 -1.5553238335996866e-04</internalNodes>
          <leafValues>
            2.5370198488235474e-01 -6.6600400209426880e-01</leafValues></_>
        <_>
          <internalNodes>
            0 -1 26 1.7302032792940736e-03</internalNodes>
          <leafValues>
            -5.1663529872894287e-01 3.4073218703269958e-01</leafValues></_>
        <_>
          <internalNodes>
            0 -1 24 -1.2921294197440147e-02</internalNodes>
          <leafValues>
            -9.1997259855270386e-01 1.4023499190807343e-01</leafValues></_>
        <_>
          <internalNodes>
            0 -1 11 -5.8612776920199394e-03</internalNodes>
          <leafValues>
            -6.1672997474670410e-01 2.2141784429550171e-01</leafValues></_>
        <_>
          <internalNodes>
            0 -1 62 3.5892117302864790e-03</internalNodes>
          <leafValues>
            2.6225730776786804e-01 -6.2487536668777466e-01</leafValues></_></weakClassifiers></_>
    <!-- stage 15 -->
    <_>
      <maxWeakCount>9</maxWeakCount>
      <stageThreshold>-1.0457379817962646e+00</stageThreshold>
      <weakClassifiers>
        <_>
          <internalNodes>
            0 -1 1 -4.6969410032033920e-02</internalNodes>
          <leafValues>
            5.1515150070190430e-01 -3.6170211434364319e-01</leafValues></_>
        <_>
          <internalNodes>
            0 -1 87 4.3071250547654927e-04</internalNodes>
          <leafValues>
            2.7044108510017395e-01 -6.6179049015045166e-01</leafValues></_>
        <_>
          <internalNodes>
            0 -1 57 -6.6669192165136337e-04</internalNodes>
          <leafValues>
            6.4484429359436035e-01 -2.9042917490005493e-01</leafValues></_>
        <_>
          <internalNodes>
            0 -1 73 1.0855089640244842e-03</internalNodes>
          <leafValues>
            1.6634255647659302e-01 -9.4913172721862793e-01</leafValues></_>
        <_>
          <internalNodes>
            0 -1 98 1.9238933455199003e-03</internalNodes>
          <leafValues>
            -4.4048559665679932e-01 3.8631176948547363e-01</leafValues></_>
        <_>
          <internalNodes>
            0 -1 93 2.2424787748605013e-03</internalNodes>
          <leafValues>
            -5.6594848632812500e-01 3.2745191454887390e-01</leafValues></_>
        <_>
          <internalNodes>
            0 -1 69 1.0677847603801638e-04</internalNodes>
          <leafValues>
            3.4841653704643250e-01 -5.5151551961898804e-01</leafValues></_>
        <_>
          <internalNodes>
            0 -1 22 -3.2057382166385651e-02</internalNodes>
          <leafValues>
            6.8522840738296509e-01 -3.0153521895408630e-01</leafValues></_>
        <_>
          <internalNodes>
            0 -1 32 3.1323652714490891e-02</internalNodes>
          <leafValues>
            2.4112832546234131e-01 -8.8642966747283936e-01</leafValues></_></weakClassifiers></_>
    <!-- stage 16 -->
    <_>
      <maxWeakCount>6</maxWeakCount>
      <stageThreshold>-6.4742702245712280e-01</stageThreshold>
      <weakClassifiers>
        <_>
          <internalNodes>
            0 -1 3 4.1990578174591064e-02</internalNodes>
          <leafValues>
            -2.5391849875450134e-01 1.</leafValues></_>
        <_>
          <internalNodes>
            0 -1 41 -2.4552182294428349e-03</internalNodes>
          <leafValues>
            5.4720127582550049e-01 -4.5505806803703308e-01</leafValues></_>
        <_>
          <internalNodes>
            0 -1 0 7.8067630529403687e-03</internalNodes>
          <leafValues>
            -2.7638822793960571e-01 7.9857087135314941e-01</leafValues></_>
        <_>
          <internalNodes>
            0 -1 30 -3.9328029379248619e-04</internalNodes>
          <leafValues>
            5.5118972063064575e-01 -4.8576956987380981e-01</leafValues></_>
        <_>
          <internalNodes>
            0 -1 55 -8.4438607096672058e-02</internalNodes>
          <leafValues>
            -8.3224105834960938e-01 2.5791278481483459e-01</leafValues></_>
        <_>
          <internalNodes>
            0 -1 44 -7.5418292544782162e-04</internalNodes>
          <leafValues>
            5.8098930120468140e-01 -4.1999834775924683e-01</leafValues></_></weakClassifiers></_></stages>
  <features>
    <_>
      <rects>
        <_>
          0 1 12 2 -1.</_>
        <_>
          0 1 6 1 2.</_>
        <_>
          6 2 6 1 2.</_></rects>
      <tilted>0</tilted></_>
    <_>
      <rects>
        <_>
          0 5 12 8 -1.</_>
        <_>
          0 5 6 4 2.</_>
        <_>
          6 9 6 4 2.</_></rects>
      <tilted>0</tilted></_>
    <_>
      <rects>
        <_>
          0 6 4 8 -1.</_>
        <_>
          2 6 2 8 2.</_></rects>
      <tilted>0</tilted></_>
    <_>
      <rects>
        <_>
          1 7 4 9 -1.</_>
        <_>
          1 10 4 3 3.</_></rects>
      <tilted>0</tilted></_>
    <_>
      <rects>
        <_>
          2 4 3 8 -1.</_>
        <_>
          2 8 3 4 2.</_></rects>
      <tilted>0</tilted></_>
    <_>
      <rects>
        <_>
          2 5 12 1 -1.</_>
        <_>
          8 5 6 1 2.</_></rects>
      <tilted>0</tilted></_>
    <_>
      <rects>
        <_>
          2 6 1 4 -1.</_>
        <_>
          2 8 1 2 2.</_></rects>
      <tilted>0</tilted></_>
    <_>
      <rects>
        <_>
          2 7 6 2 -1.</_>
        <_>
          4 7 2 2 3.</_></rects>
      <tilted>0</tilted></_>
    <_>
      <rects>
        <_>
          2 11 4 4 -1.</_>
        <_>
          2 11 2 2 2.</_>
        <_>
          4 13 2 2 2.</_></rects>
      <tilted>0</tilted></_>
    <_>
      <rects>
        <_>
          3 3 1 15 -1.</_>
        <_>
          3 8 1 5 3.</_></rects>
      <tilted>0</tilted></_>
    <_>
      <rects>
        <_>
          3 5 9 1 -1.</_>
        <_>
          6 5 3 1 3.</_></rects>
      <tilted>0</tilted></_>
    <_>
      <rects>
        <_>
          3 5 14 5 -1.</_>
        <_>
          10 5 7 5 2.</_></rects>
      <tilted>0</tilted></_>
    <_>
      <rects>
        <_>
          3 6 6 2 -1.</_>
        <_>
          5 6 2 2 3.</_></rects>
      <tilted>0</tilted></_>
    <_>
      <rects>
        <_>
          3 6 8 8 -1.</_>
        <_>
          7 6 4 8 2.</_></rects>
      <tilted>0</tilted></_>
    <_>
      <rects>
        <_>
          3 7 6 2 -1.</_>
        <_>
          5 7 2 2 3.</_></rects>
      <tilted>0</tilted></_>
    <_>
      <rects>
        <_>
          3 7 6 7 -1.</_>
        <_>
          6 7 3 7 2.</_></rects>
      <tilted>0</tilted></_>
    <_>
      <rects>
        <_>
          3 10 3 6 -1.</_>
        <_>
          3 12 3 2 3.</_></rects>
      <tilted>0</tilted></_>
    <_>
      <rects>
        <_>
          4 4 9 5 -1.</_>
        <_>
          7 4 3 5 3.</_></rects>
      <tilted>0</tilted></_>
    <_>
      <rects>
        <_>
          4 5 2 4 -1.</_>
        <_>
          4 7 2 2 2.</_></rects>
      <tilted>0</tilted></_>
    <_>
      <rects>
        <_>
          4 5 9 1 -1.</_>
        <_>
          7 5 3 1 3.</_></rects>
      <tilted>0</tilted></_>
    <_>
      <rects>
        <_>
          4 6 2 9 -1.</_>
        <_>
          5 6 1 9 2.</_></rects>
      <tilted>0</tilted></_>
    <_>
      <rects>
        <_>
          4 6 6 2 -1.</_>
        <_>
          6 6 2 2 3.</_></rects>
      <tilted>0</tilted></_>
    <_>
      <rects>
        <_>
          4 6 10 6 -1.</_>
        <_>
          4 6 5 3 2.</_>
        <_>
          9 9 5 3 2.</_></rects>
      <tilted>0</tilted></_>
    <_>
      <rects>
        <_>
          4 6 8 12 -1.</_>
        <_>
          4 12 8 6 2.</_></rects>
      <tilted>0</tilted></_>
    <_>
      <rects>
        <_>
          4 7 2 7 -1.</_>
        <_>
          5 7 1 7 2.</_></rects>
      <tilted>0</tilted></_>
    <_>
      <rects>
        <_>
          4 9 2 10 -1.</_>
        <_>
          4 9 1 5 2.</_>
        <_>
          5 14 1 5 2.</_></rects>
      <tilted>0</tilted></_>
    <_>
      <rects>
        <_>
          4 10 2 8 -1.</_>
        <_>
          4 10 1 4 2.</_>
        <_>
          5 14 1 4 2.</_></rects>
      <tilted>0</tilted></_>
    <_>
      <rects>
        <_>
          4 12 6 6 -1.</_>
        <_>
          7 12 3 6 2.</_></rects>
      <tilted>0</tilted></_>
    <_>
      <rects>
        <_>
          4 13 5 6 -1.</_>
        <_>
          4 15 5 2 3.</_></rects>
      <tilted>0</tilted></_>
    <_>
      <rects>
        <_>
          4 15 3 2 -1.</_>
        <_>
          4 16 3 1 2.</_></rects>
      <tilted>0</tilted></_>
    <_>
      <rects>
        <_>
          5 2 1 6 -1.</_>
        <_>
          5 4 1 2 3.</_></rects>
      <tilted>0</tilted></_>
    <_>
      <rects>
        <_>
          5 2 10 4 -1.</_>
        <_>
          5 2 5 2 2.</_>
        <_>
          10 4 5 2 2.</_></rects>
      <tilted>0</tilted></_>
    <_>
      <rects>
        <_>
          5 3 2 15 -1.</_>
        <_>
          5 8 2 5 3.</_></rects>
      <tilted>0</tilted></_>
    <_>
      <rects>
        <_>
          5 4 6 4 -1.</_>
        <_>
          7 4 2 4 3.</_></rects>
      <tilted>0</tilted></_>
    <_>
      <rects>
        <_>
          5 4 9 4 -1.</_>
        <_>
          8 4 3 4 3.</_></rects>
      <tilted>0</tilted></_>
    <_>
      <rects>
        <_>
          5 4 5 2 -1.</_>
        <_>
          5 5 5 1 2.</_></rects>
      <tilted>0</tilted></_>
    <_>
      <rects>
        <_>
          5 5 6 1 -1.</_>
        <_>
          7 5 2 1 3.</_></rects>
      <tilted>0</tilted></_>
    <_>
      <rects>
        <_>
          5 5 9 1 -1.</_>
        <_>
          8 5 3 1 3.</_></rects>
      <tilted>0</tilted></_>
    <_>
      <rects>
        <_>
          5 5 9 3 -1.</_>
        <_>
          8 5 3 3 3.</_></rects>
      <tilted>0</tilted></_>
    <_>
      <rects>
        <_>
          5 5 9 5 -1.</_>
        <_>
          8 5 3 5 3.</_></rects>
      <tilted>0</tilted></_>
    <_>
      <rects>
        <_>
          5 10 2 6 -1.</_>
        <_>
          6 10 1 6 2.</_></rects>
      <tilted>0</tilted></_>
    <_>
      <rects>
        <_>
          5 10 4 2 -1.</_>
        <_>
          7 10 2 2 2.</_></rects>
      <tilted>0</tilted></_>
    <_>
      <rects>
        <_>
          5 12 6 6 -1.</_>
        <_>
          8 12 3 6 2.</_></rects>
      <tilted>0</tilted></_>
    <_>
      <rects>
        <_>
          5 12 10 2 -1.</_>
        <_>
          10 12 5 2 2.</_></rects>
      <tilted>0</tilted></_>
    <_>
      <rects>
        <_>
          5 13 6 2 -1.</_>
        <_>
          5 13 3 1 2.</_>
        <_>
          8 14 3 1 2.</_></rects>
      <tilted>0</tilted></_>
    <_>
      <rects>
        <_>
          5 14 2 1 -1.</_>
        <_>
          6 14 1 1 2.</_></rects>
      <tilted>0</tilted></_>
    <_>
      <rects>
        <_>
          5 18 10 2 -1.</_>
        <_>
          5 18 5 1 2.</_>
        <_>
          10 19 5 1 2.</_></rects>
      <tilted>0</tilted></_>
    <_>
      <rects>
        <_>
          6 4 2 4 -1.</_>
        <_>
          6 6 2 2 2.</_></rects>
      <tilted>0</tilted></_>
    <_>
      <rects>
        <_>
          6 4 6 2 -1.</_>
        <_>
          6 5 6 1 2.</_></rects>
      <tilted>0</tilted></_>
    <_>
      <rects>
        <_>
          6 4 9 9 -1.</_>
        <_>
          6 7 9 3 3.</_></rects>
      <tilted>0</tilted></_>
    <_>
      <rects>
        <_>
          6 5 6 1 -1.</_>
        <_>
          9 5 3 1 2.</_></rects>
      <tilted>0</tilted></_>
    <_>
      <rects>
        <_>
          6 5 8 1 -1.</_>
        <_>
          10 5 4 1 2.</_></rects>
      <tilted>0</tilted></_>
    <_>
      <rects>
        <_>
          6 5 4 12 -1.</_>
        <_>
          6 11 4 6 2.</_></rects>
      <tilted>0</tilted></_>
    <_>
      <rects>
        <_>
          6 6 4 2 -1.</_>
        <_>
          8 6 2 2 2.</_></rects>
      <tilted>0</tilted></_>
    <_>
      <rects>
        <_>
          6 6 8 6 -1.</_>
        <_>
          6 6 4 3 2.</_>
        <_>
          10 9 4 3 2.</_></rects>
      <tilted>0</tilted></_>
    <_>
      <rects>
        <_>
          6 7 6 12 -1.</_>
        <_>
          6 11 6 4 3.</_></rects>
      <tilted>0</tilted></_>
    <_>
      <rects>
        <_>
          6 8 2 8 -1.</_>
        <_>
          6 12 2 4 2.</_></rects>
      <tilted>0</tilted></_>
    <_>
      <rects>
        <_>
          6 9 2 2 -1.</_>
        <_>
          6 9 1 1 2.</_>
        <_>
          7 10 1 1 2.</_></rects>
      <tilted>0</tilted></_>
    <_>
      <rects>
        <_>
          7 3 3 10 -1.</_>
        <_>
          7 8 3 5 2.</_></rects>
      <tilted>0</tilted></_>
    <_>
      <rects>
        <_>
          7 3 5 6 -1.</_>
        <_>
          7 5 5 2 3.</_></rects>
      <tilted>0</tilted></_>
    <_>
      <rects>
        <_>
          7 4 4 2 -1.</_>
        <_>
          9 4 2 2 2.</_></rects>
      <tilted>0</tilted></_>
    <_>
      <rects>
        <_>
          7 5 6 1 -1.</_>
        <_>
          10 5 3 1 2.</_></rects>
      <tilted>0</tilted></_>
    <_>
      <rects>
        <_>
          7 5 8 1 -1.</_>
        <_>
          11 5 4 1 2.</_></rects>
      <tilted>0</tilted></_>
    <_>
      <rects>
        <_>
          7 6 12 6 -1.</_>
        <_>
          11 6 4 6 3.</_></rects>
      <tilted>0</tilted></_>
    <_>
      <rects>
        <_>
          7 6 7 10 -1.</_>
        <_>
          7 11 7 5 2.</_></rects>
      <tilted>0</tilted></_>
    <_>
      <rects>
        <_>
          7 16 1 2 -1.</_>
        <_>
          7 17 1 1 2.</_></rects>
      <tilted>0</tilted></_>
    <_>
      <rects>
        <_>
          8 1 1 12 -1.</_>
        <_>
          8 5 1 4 3.</_></rects>
      <tilted>0</tilted></_>
    <_>
      <rects>
        <_>
          8 2 1 6 -1.</_>
        <_>
          8 5 1 3 2.</_></rects>
      <tilted>0</tilted></_>
    <_>
      <rects>
        <_>
          8 3 1 6 -1.</_>
        <_>
          8 5 1 2 3.</_></rects>
      <tilted>0</tilted></_>
    <_>
      <rects>
        <_>
          8 3 4 6 -1.</_>
        <_>
          8 3 2 3 2.</_>
        <_>
          10 6 2 3 2.</_></rects>
      <tilted>0</tilted></_>
    <_>
      <rects>
        <_>
          8 3 3 6 -1.</_>
        <_>
          8 5 3 2 3.</_></rects>
      <tilted>0</tilted></_>
    <_>
      <rects>
        <_>
          8 4 1 10 -1.</_>
        <_>
          8 9 1 5 2.</_></rects>
      <tilted>0</tilted></_>
    <_>
      <rects>
        <_>
          8 5 1 4 -1.</_>
        <_>
          8 7 1 2 2.</_></rects>
      <tilted>0</tilted></_>
    <_>
      <rects>
        <_>
          8 5 3 3 -1.</_>
        <_>
          9 5 1 3 3.</_></rects>
      <tilted>0</tilted></_>
    <_>
      <rects>
        <_>
          8 5 4 2 -1.</_>
        <_>
          8 6 4 1 2.</_></rects>
      <tilted>0</tilted></_>
    <_>
      <rects>
        <_>
          8 6 1 8 -1.</_>
        <_>
          8 10 1 4 2.</_></rects>
      <tilted>0</tilted></_>
    <_>
      <rects>
        <_>
          8 6 2 8 -1.</_>
        <_>
          8 10 2 4 2.</_></rects>
      <tilted>0</tilted></_>
    <_>
      <rects>
        <_>
          8 7 1 2 -1.</_>
        <_>
          8 8 1 1 2.</_></rects>
      <tilted>0</tilted></_>
    <_>
      <rects>
        <_>
          8 7 3 2 -1.</_>
        <_>
          8 8 3 1 2.</_></rects>
      <tilted>0</tilted></_>
    <_>
      <rects>
        <_>
          8 11 1 2 -1.</_>
        <_>
          8 12 1 1 2.</_></rects>
      <tilted>0</tilted></_>
    <_>
      <rects>
        <_>
          9 0 4 2 -1.</_>
        <_>
          9 0 2 1 2.</_>
        <_>
          11 1 2 1 2.</_></rects>
      <tilted>0</tilted></_>
    <_>
      <rects>
        <_>
          9 0 5 4 -1.</_>
        <_>
          9 2 5 2 2.</_></rects>
      <tilted>0</tilted></_>
    <_>
      <rects>
        <_>
          9 0 5 6 -1.</_>
        <_>
          9 2 5 2 3.</_></rects>
      <tilted>0</tilted></_>
    <_>
      <rects>
        <_>
          9 2 8 4 -1.</_>
        <_>
          9 2 4 2 2.</_>
        <_>
          13 4 4 2 2.</_></rects>
      <tilted>0</tilted></_>
    <_>
      <rects>
        <_>
          9 3 1 6 -1.</_>
        <_>
          9 5 1 2 3.</_></rects>
      <tilted>0</tilted></_>
    <_>
      <rects>
        <_>
          9 5 1 2 -1.</_>
        <_>
          9 6 1 1 2.</_></rects>
      <tilted>0</tilted></_>
    <_>
      <rects>
        <_>
          9 5 1 10 -1.</_>
        <_>
          9 10 1 5 2.</_></rects>
      <tilted>0</tilted></_>
    <_>
      <rects>
        <_>
          9 6 3 2 -1.</_>
        <_>
          10 6 1 2 3.</_></rects>
      <tilted>0</tilted></_>
    <_>
      <rects>
        <_>
          9 11 1 2 -1.</_>
        <_>
          9 12 1 1 2.</_></rects>
      <tilted>0</tilted></_>
    <_>
      <rects>
        <_>
          9 12 1 3 -1.</_>
        <_>
          9 13 1 1 3.</_></rects>
      <tilted>0</tilted></_>
    <_>
      <rects>
        <_>
          9 12 6 2 -1.</_>
        <_>
          12 12 3 2 2.</_></rects>
      <tilted>0</tilted></_>
    <_>
      <rects>
        <_>
          10 0 7 4 -1.</_>
        <_>
          10 2 7 2 2.</_></rects>
      <tilted>0</tilted></_>
    <_>
      <rects>
        <_>
          10 2 6 4 -1.</_>
        <_>
          10 4 6 2 2.</_></rects>
      <tilted>0</tilted></_>
    <_>
      <rects>
        <_>
          10 4 1 9 -1.</_>
        <_>
          10 7 1 3 3.</_></rects>
      <tilted>0</tilted></_>
    <_>
      <rects>
        <_>
          10 5 3 4 -1.</_>
        <_>
          11 5 1 4 3.</_></rects>
      <tilted>0</tilted></_>
    <_>
      <rects>
        <_>
          10 6 4 5 -1.</_>
        <_>
          12 6 2 5 2.</_></rects>
      <tilted>0</tilted></_>
    <_>
      <rects>
        <_>
          11 3 5 6 -1.</_>
        <_>
          11 5 5 2 3.</_></rects>
      <tilted>0</tilted></_>
    <_>
      <rects>
        <_>
          11 7 5 3 -1.</_>
        <_>
          11 8 5 1 3.</_></rects>
      <tilted>0</tilted></_>
    <_>
      <rects>
        <_>
          11 8 2 3 -1.</_>
        <_>
          12 8 1 3 2.</_></rects>
      <tilted>0</tilted></_>
    <_>
      <rects>
        <_>
          12 4 6 5 -1.</_>
        <_>
          14 4 2 5 3.</_></rects>
      <tilted>0</tilted></_>
    <_>
      <rects>
        <_>
          12 5 2 12 -1.</_>
        <_>
          12 11 2 6 2.</_></rects>
      <tilted>0</tilted></_>
    <_>
      <rects>
        <_>
          13 1 6 11 -1.</_>
        <_>
          16 1 3 11 2.</_></rects>
      <tilted>0</tilted></_>
    <_>
      <rects>
        <_>
          13 5 4 4 -1.</_>
        <_>
          13 5 2 2 2.</_>
        <_>
          15 7 2 2 2.</_></rects>
      <tilted>0</tilted></_>
    <_>
      <rects>
        <_>
          13 7 4 3 -1.</_>
        <_>
          13 8 4 1 3.</_></rects>
      <tilted>0</tilted></_>
    <_>
      <rects>
        <_>
          14 1 2 6 -1.</_>
        <_>
          14 1 1 3 2.</_>
        <_>
          15 4 1 3 2.</_></rects>
      <tilted>0</tilted></_>
    <_>
      <rects>
        <_>
          14 2 3 5 -1.</_>
        <_>
          15 2 1 5 3.</_></rects>
      <tilted>0</tilted></_>
    <_>
      <rects>
        <_>
          14 4 4 5 -1.</_>
        <_>
          16 4 2 5 2.</_></rects>
      <tilted>0</tilted></_></features></cascade>
</opencv_storage>
