<?xml version="1.0"?>
<opencv_storage>
<cascade>
  <stageType>BOOST</stageType>
  <featureType>HAAR</featureType>
  <height>20</height>
  <width>20</width>
  <stageParams>
    <boostType>GAB</boostType>
    <minHitRate>9.9500000476837158e-01</minHitRate>
    <maxFalseAlarm>5.0000000000000000e-01</maxFalseAlarm>
    <weightTrimRate>9.4999999999999996e-01</weightTrimRate>
    <maxDepth>1</maxDepth>
    <maxWeakCount>100</maxWeakCount></stageParams>
  <featureParams>
    <maxCatCount>0</maxCatCount>
    <featSize>1</featSize>
    <mode>BASIC</mode></featureParams>
  <stageNum>15</stageNum>
  <stages>
    <!-- stage 0 -->
    <_>
      <maxWeakCount>2</maxWeakCount>
      <stageThreshold>-4.3048012256622314e-01</stageThreshold>
      <weakClassifiers>
        <_>
          <internalNodes>
            0 -1 7 2.3409044742584229e-01</internalNodes>
          <leafValues>
            -9.4472360610961914e-01 8.2894736528396606e-01</leafValues></_>
        <_>
          <internalNodes>
            0 -1 35 -3.2031580805778503e-02</internalNodes>
          <leafValues>
            5.1424348354339600e-01 -9.6624094247817993e-01</leafValues></_></weakClassifiers></_>
    <!-- stage 1 -->
    <_>
      <maxWeakCount>2</maxWeakCount>
      <stageThreshold>-4.4900962710380554e-01</stageThreshold>
      <weakClassifiers>
        <_>
          <internalNodes>
            0 -1 2 3.3824376761913300e-02</internalNodes>
          <leafValues>
            -8.2871538400650024e-01 5.1633989810943604e-01</leafValues></_>
        <_>
          <internalNodes>
            0 -1 37 -8.6940526962280273e-03</internalNodes>
          <leafValues>
            3.7970572710037231e-01 -9.4080621004104614e-01</leafValues></_></weakClassifiers></_>
    <!-- stage 2 -->
    <_>
      <maxWeakCount>3</maxWeakCount>
      <stageThreshold>-1.0810109376907349e+00</stageThreshold>
      <weakClassifiers>
        <_>
          <internalNodes>
            0 -1 54 -2.3586463183164597e-02</internalNodes>
          <leafValues>
            3.9285713434219360e-01 -8.2722514867782593e-01</leafValues></_>
        <_>
          <internalNodes>
            0 -1 36 -7.8106815926730633e-03</internalNodes>
          <leafValues>
            6.3783138990402222e-01 -6.2660634517669678e-01</leafValues></_>
        <_>
          <internalNodes>
            0 -1 40 -1.8666576943360269e-04</internalNodes>
          <leafValues>
            3.7282046675682068e-01 -9.9195277690887451e-01</leafValues></_></weakClassifiers></_>
    <!-- stage 3 -->
    <_>
      <maxWeakCount>4</maxWeakCount>
      <stageThreshold>-9.9984961748123169e-01</stageThreshold>
      <weakClassifiers>
        <_>
          <internalNodes>
            0 -1 9 2.6879119873046875e-01</internalNodes>
          <leafValues>
            -8.2400000095367432e-01 3.3714285492897034e-01</leafValues></_>
        <_>
          <internalNodes>
            0 -1 56 -2.0803337916731834e-02</internalNodes>
          <leafValues>
            5.8857601881027222e-01 -6.9559156894683838e-01</leafValues></_>
        <_>
          <internalNodes>
            0 -1 23 -6.9761835038661957e-04</internalNodes>
          <leafValues>
            3.4289434552192688e-01 -9.5146298408508301e-01</leafValues></_>
        <_>
          <internalNodes>
            0 -1 5 3.2698117196559906e-02</internalNodes>
          <leafValues>
            -8.9518052339553833e-01 3.1006205081939697e-01</leafValues></_></weakClassifiers></_>
    <!-- stage 4 -->
    <_>
      <maxWeakCount>3</maxWeakCount>
      <stageThreshold>-1.1640974283218384e+00</stageThreshold>
      <weakClassifiers>
        <_>
          <internalNodes>
            0 -1 33 4.7283094376325607e-02</internalNodes>
          <leafValues>
            -7.4346792697906494e-01 4.8837208747863770e-01</leafValues></_>
        <_>
          <internalNodes>
            0 -1 42 -3.4370506182312965e-03</internalNodes>
          <leafValues>
            -7.6210504770278931e-01 4.1469094157218933e-01</leafValues></_>
        <_>
          <internalNodes>
            0 -1 47 4.5499988482333720e-04</internalNodes>
          <leafValues>
            -9.8386687040328979e-01 3.4147548675537109e-01</leafValues></_></weakClassifiers></_>
    <!-- stage 5 -->
    <_>
      <maxWeakCount>3</maxWeakCount>
      <stageThreshold>-9.3848830461502075e-01</stageThreshold>
      <weakClassifiers>
        <_>
          <internalNodes>
            0 -1 3 4.4490132480859756e-02</internalNodes>
          <leafValues>
            -7.4818402528762817e-01 4.3065693974494934e-01</leafValues></_>
        <_>
          <internalNodes>
            0 -1 58 1.9491482526063919e-02</internalNodes>
          <leafValues>
            -5.1897329092025757e-01 7.2596967220306396e-01</leafValues></_>
        <_>
          <internalNodes>
            0 -1 14 -5.3146352001931518e-05</internalNodes>
          <leafValues>
            4.5771202445030212e-01 -8.5017198324203491e-01</leafValues></_></weakClassifiers></_>
    <!-- stage 6 -->
    <_>
      <maxWeakCount>3</maxWeakCount>
      <stageThreshold>-1.3417333364486694e+00</stageThreshold>
      <weakClassifiers>
        <_>
          <internalNodes>
            0 -1 31 -8.0107890069484711e-02</internalNodes>
          <leafValues>
            1.7431192100048065e-01 -8.6746990680694580e-01</leafValues></_>
        <_>
          <internalNodes>
            0 -1 45 -7.2474346961826086e-04</internalNodes>
          <leafValues>
            -7.5431942939758301e-01 3.4393525123596191e-01</leafValues></_>
        <_>
          <internalNodes>
            0 -1 19 2.3117754608392715e-03</internalNodes>
          <leafValues>
            -9.7439640760421753e-01 2.8005599975585938e-01</leafValues></_></weakClassifiers></_>
    <!-- stage 7 -->
    <_>
      <maxWeakCount>4</maxWeakCount>
      <stageThreshold>-9.3789398670196533e-01</stageThreshold>
      <weakClassifiers>
        <_>
          <internalNodes>
            0 -1 53 9.6012301743030548e-02</internalNodes>
          <leafValues>
            -6.4135020971298218e-01 7.1052628755569458e-01</leafValues></_>
        <_>
          <internalNodes>
            0 -1 17 -8.3010777831077576e-02</internalNodes>
          <leafValues>
            3.7975916266441345e-01 -8.1736022233963013e-01</leafValues></_>
        <_>
          <internalNodes>
            0 -1 38 -2.3350666742771864e-04</internalNodes>
          <leafValues>
            2.5971230864524841e-01 -1.</leafValues></_>
        <_>
          <internalNodes>
            0 -1 18 6.0999859124422073e-03</internalNodes>
          <leafValues>
            2.6110413670539856e-01 -9.2279779911041260e-01</leafValues></_></weakClassifiers></_>
    <!-- stage 8 -->
    <_>
      <maxWeakCount>4</maxWeakCount>
      <stageThreshold>-1.0541372299194336e+00</stageThreshold>
      <weakClassifiers>
        <_>
          <internalNodes>
            0 -1 25 2.2856067866086960e-02</internalNodes>
          <leafValues>
            -7.1566265821456909e-01 3.4814813733100891e-01</leafValues></_>
        <_>
          <internalNodes>
            0 -1 32 -1.5100119635462761e-02</internalNodes>
          <leafValues>
            -8.2846045494079590e-01 3.1966850161552429e-01</leafValues></_>
        <_>
          <internalNodes>
            0 -1 26 -7.8011886216700077e-04</internalNodes>
          <leafValues>
            2.7310201525688171e-01 -9.0421527624130249e-01</leafValues></_>
        <_>
          <internalNodes>
            0 -1 39 6.2851584516465664e-04</internalNodes>
          <leafValues>
            2.4607220292091370e-01 -9.7722697257995605e-01</leafValues></_></weakClassifiers></_>
    <!-- stage 9 -->
    <_>
      <maxWeakCount>5</maxWeakCount>
      <stageThreshold>-1.6111596822738647e+00</stageThreshold>
      <weakClassifiers>
        <_>
          <internalNodes>
            0 -1 1 1.5881519764661789e-02</internalNodes>
          <leafValues>
            -8.1818181276321411e-01 1.3875597715377808e-01</leafValues></_>
        <_>
          <internalNodes>
            0 -1 4 1.3979631476104259e-02</internalNodes>
          <leafValues>
            -6.6407853364944458e-01 3.7701517343521118e-01</leafValues></_>
        <_>
          <internalNodes>
            0 -1 27 4.4895634055137634e-03</internalNodes>
          <leafValues>
            2.3120540380477905e-01 -1.</leafValues></_>
        <_>
          <internalNodes>
            0 -1 48 2.5482010096311569e-04</internalNodes>
          <leafValues>
            -6.6048502922058105e-01 4.3567326664924622e-01</leafValues></_>
        <_>
          <internalNodes>
            0 -1 20 3.8430880522355437e-04</internalNodes>
          <leafValues>
            -9.5258945226669312e-01 3.0038025975227356e-01</leafValues></_></weakClassifiers></_>
    <!-- stage 10 -->
    <_>
      <maxWeakCount>4</maxWeakCount>
      <stageThreshold>-8.6165392398834229e-01</stageThreshold>
      <weakClassifiers>
        <_>
          <internalNodes>
            0 -1 30 -2.1722864359617233e-02</internalNodes>
          <leafValues>
            4.6666666865348816e-01 -6.7191010713577271e-01</leafValues></_>
        <_>
          <internalNodes>
            0 -1 15 -4.1997358202934265e-03</internalNodes>
          <leafValues>
            2.4548368155956268e-01 -8.9939808845520020e-01</leafValues></_>
        <_>
          <internalNodes>
            0 -1 52 -1.5442061703652143e-03</internalNodes>
          <leafValues>
            4.2584785819053650e-01 -6.8279278278350830e-01</leafValues></_>
        <_>
          <internalNodes>
            0 -1 16 -7.0512816309928894e-03</internalNodes>
          <leafValues>
            -1. 2.8380641341209412e-01</leafValues></_></weakClassifiers></_>
    <!-- stage 11 -->
    <_>
      <maxWeakCount>5</maxWeakCount>
      <stageThreshold>-9.1907650232315063e-01</stageThreshold>
      <weakClassifiers>
        <_>
          <internalNodes>
            0 -1 8 3.9960041642189026e-02</internalNodes>
          <leafValues>
            -6.9373548030853271e-01 4.1176471114158630e-01</leafValues></_>
        <_>
          <internalNodes>
            0 -1 21 -3.2452465966343880e-03</internalNodes>
          <leafValues>
            -9.7654461860656738e-01 2.0269033312797546e-01</leafValues></_>
        <_>
          <internalNodes>
            0 -1 41 2.6014057220891118e-04</internalNodes>
          <leafValues>
            -8.0890685319900513e-01 2.8435924649238586e-01</leafValues></_>
        <_>
          <internalNodes>
            0 -1 43 -8.7118009105324745e-04</internalNodes>
          <leafValues>
            3.0697140097618103e-01 -9.4876790046691895e-01</leafValues></_>
        <_>
          <internalNodes>
            0 -1 29 -2.5909696705639362e-04</internalNodes>
          <leafValues>
            -9.3611502647399902e-01 2.3637729883193970e-01</leafValues></_></weakClassifiers></_>
    <!-- stage 12 -->
    <_>
      <maxWeakCount>6</maxWeakCount>
      <stageThreshold>-1.5526320934295654e+00</stageThreshold>
      <weakClassifiers>
        <_>
          <internalNodes>
            0 -1 0 9.0148508548736572e-02</internalNodes>
          <leafValues>
            -6.4453959465026855e-01 6.1445784568786621e-01</leafValues></_>
        <_>
          <internalNodes>
            0 -1 28 9.5624694949947298e-05</internalNodes>
          <leafValues>
            1.8942654132843018e-01 -9.1790318489074707e-01</leafValues></_>
        <_>
          <internalNodes>
            0 -1 11 4.9281328916549683e-02</internalNodes>
          <leafValues>
            2.0089365541934967e-01 -9.6411114931106567e-01</leafValues></_>
        <_>
          <internalNodes>
            0 -1 13 1.6777414828538895e-02</internalNodes>
          <leafValues>
            -9.3208336830139160e-01 2.6899686455726624e-01</leafValues></_>
        <_>
          <internalNodes>
            0 -1 55 -1.8129173666238785e-02</internalNodes>
          <leafValues>
            3.6396715044975281e-01 -6.2973922491073608e-01</leafValues></_>
        <_>
          <internalNodes>
            0 -1 34 5.9221647679805756e-03</internalNodes>
          <leafValues>
            2.2733448445796967e-01 -9.3551927804946899e-01</leafValues></_></weakClassifiers></_>
    <!-- stage 13 -->
    <_>
      <maxWeakCount>6</maxWeakCount>
      <stageThreshold>-1.1095684766769409e+00</stageThreshold>
      <weakClassifiers>
        <_>
          <internalNodes>
            0 -1 57 -3.7281081080436707e-02</internalNodes>
          <leafValues>
            7.5000000000000000e-01 -6.1316871643066406e-01</leafValues></_>
        <_>
          <internalNodes>
            0 -1 6 1.8012743676081300e-03</internalNodes>
          <leafValues>
            -7.7260541915893555e-01 3.4469005465507507e-01</leafValues></_>
        <_>
          <internalNodes>
            0 -1 24 -1.5620046760886908e-03</internalNodes>
          <leafValues>
            -9.7085183858871460e-01 2.4225392937660217e-01</leafValues></_>
        <_>
          <internalNodes>
            0 -1 44 6.7610489204525948e-03</internalNodes>
          <leafValues>
            -6.6898375749588013e-01 4.4334086775779724e-01</leafValues></_>
        <_>
          <internalNodes>
            0 -1 50 9.6195942023769021e-04</internalNodes>
          <leafValues>
            -6.1816078424453735e-01 5.0070446729660034e-01</leafValues></_>
        <_>
          <internalNodes>
            0 -1 12 -6.1356797814369202e-02</internalNodes>
          <leafValues>
            3.6688429117202759e-01 -9.0852379798889160e-01</leafValues></_></weakClassifiers></_>
    <!-- stage 14 -->
    <_>
      <maxWeakCount>6</maxWeakCount>
      <stageThreshold>-1.2463082075119019e+00</stageThreshold>
      <weakClassifiers>
        <_>
          <internalNodes>
            0 -1 51 1.5015385579317808e-03</internalNodes>
          <leafValues>
            -7.6328504085540771e-01 4.8529410362243652e-01</leafValues></_>
        <_>
          <internalNodes>
            0 -1 59 -8.1854257732629776e-03</internalNodes>
          <leafValues>
            8.1718111038208008e-01 -5.1261419057846069e-01</leafValues></_>
        <_>
          <internalNodes>
            0 -1 49 -5.1891310140490532e-03</internalNodes>
          <leafValues>
            8.3503150939941406e-01 -5.0787848234176636e-01</leafValues></_>
        <_>
          <internalNodes>
            0 -1 22 7.7586760744452477e-03</internalNodes>
          <leafValues>
            -8.2590466737747192e-01 6.0394817590713501e-01</leafValues></_>
        <_>
          <internalNodes>
            0 -1 10 9.6480399370193481e-03</internalNodes>
          <leafValues>
            -4.9145719408988953e-01 8.1281352043151855e-01</leafValues></_>
        <_>
          <internalNodes>
            0 -1 46 3.5814689472317696e-03</internalNodes>
          <leafValues>
            -7.7391260862350464e-01 5.2503609657287598e-01</leafValues></_></weakClassifiers></_></stages>
  <features>
    <_>
      <rects>
        <_>
          0 3 4 15 -1.</_>
        <_>
          2 3 2 15 2.</_></rects>
      <tilted>0</tilted></_>
    <_>
      <rects>
        <_>
          0 3 18 1 -1.</_>
        <_>
          6 3 6 1 3.</_></rects>
      <tilted>0</tilted></_>
    <_>
      <rects>
        <_>
          0 5 4 9 -1.</_>
        <_>
          2 5 2 9 2.</_></rects>
      <tilted>0</tilted></_>
    <_>
      <rects>
        <_>
          0 6 4 8 -1.</_>
        <_>
          2 6 2 8 2.</_></rects>
      <tilted>0</tilted></_>
    <_>
      <rects>
        <_>
          0 6 12 4 -1.</_>
        <_>
          0 6 6 2 2.</_>
        <_>
          6 8 6 2 2.</_></rects>
      <tilted>0</tilted></_>
    <_>
      <rects>
        <_>
          1 7 18 4 -1.</_>
        <_>
          7 7 6 4 3.</_></rects>
      <tilted>0</tilted></_>
    <_>
      <rects>
        <_>
          1 11 6 3 -1.</_>
        <_>
          3 11 2 3 3.</_></rects>
      <tilted>0</tilted></_>
    <_>
      <rects>
        <_>
          2 1 14 15 -1.</_>
        <_>
          2 6 14 5 3.</_></rects>
      <tilted>0</tilted></_>
    <_>
      <rects>
        <_>
          3 0 9 4 -1.</_>
        <_>
          3 2 9 2 2.</_></rects>
      <tilted>0</tilted></_>
    <_>
      <rects>
        <_>
          3 0 11 15 -1.</_>
        <_>
          3 5 11 5 3.</_></rects>
      <tilted>0</tilted></_>
    <_>
      <rects>
        <_>
          3 1 6 4 -1.</_>
        <_>
          6 1 3 4 2.</_></rects>
      <tilted>0</tilted></_>
    <_>
      <rects>
        <_>
          3 5 9 9 -1.</_>
        <_>
          6 5 3 9 3.</_></rects>
      <tilted>0</tilted></_>
    <_>
      <rects>
        <_>
          3 5 8 12 -1.</_>
        <_>
          3 11 8 6 2.</_></rects>
      <tilted>0</tilted></_>
    <_>
      <rects>
        <_>
          3 6 9 10 -1.</_>
        <_>
          6 6 3 10 3.</_></rects>
      <tilted>0</tilted></_>
    <_>
      <rects>
        <_>
          3 6 12 1 -1.</_>
        <_>
          7 6 4 1 3.</_></rects>
      <tilted>0</tilted></_>
    <_>
      <rects>
        <_>
          4 5 1 12 -1.</_>
        <_>
          4 11 1 6 2.</_></rects>
      <tilted>0</tilted></_>
    <_>
      <rects>
        <_>
          4 5 3 11 -1.</_>
        <_>
          5 5 1 11 3.</_></rects>
      <tilted>0</tilted></_>
    <_>
      <rects>
        <_>
          4 7 8 12 -1.</_>
        <_>
          4 13 8 6 2.</_></rects>
      <tilted>0</tilted></_>
    <_>
      <rects>
        <_>
          4 12 6 3 -1.</_>
        <_>
          6 12 2 3 3.</_></rects>
      <tilted>0</tilted></_>
    <_>
      <rects>
        <_>
          5 3 6 13 -1.</_>
        <_>
          7 3 2 13 3.</_></rects>
      <tilted>0</tilted></_>
    <_>
      <rects>
        <_>
          5 4 2 8 -1.</_>
        <_>
          6 4 1 8 2.</_></rects>
      <tilted>0</tilted></_>
    <_>
      <rects>
        <_>
          5 5 10 1 -1.</_>
        <_>
          10 5 5 1 2.</_></rects>
      <tilted>0</tilted></_>
    <_>
      <rects>
        <_>
          5 8 6 9 -1.</_>
        <_>
          7 8 2 9 3.</_></rects>
      <tilted>0</tilted></_>
    <_>
      <rects>
        <_>
          5 12 4 2 -1.</_>
        <_>
          7 12 2 2 2.</_></rects>
      <tilted>0</tilted></_>
    <_>
      <rects>
        <_>
          5 13 6 1 -1.</_>
        <_>
          7 13 2 1 3.</_></rects>
      <tilted>0</tilted></_>
    <_>
      <rects>
        <_>
          6 0 5 4 -1.</_>
        <_>
          6 2 5 2 2.</_></rects>
      <tilted>0</tilted></_>
    <_>
      <rects>
        <_>
          6 11 4 2 -1.</_>
        <_>
          8 11 2 2 2.</_></rects>
      <tilted>0</tilted></_>
    <_>
      <rects>
        <_>
          6 12 3 4 -1.</_>
        <_>
          6 14 3 2 2.</_></rects>
      <tilted>0</tilted></_>
    <_>
      <rects>
        <_>
          6 13 2 2 -1.</_>
        <_>
          7 13 1 2 2.</_></rects>
      <tilted>0</tilted></_>
    <_>
      <rects>
        <_>
          6 13 3 2 -1.</_>
        <_>
          6 14 3 1 2.</_></rects>
      <tilted>0</tilted></_>
    <_>
      <rects>
        <_>
          6 16 5 4 -1.</_>
        <_>
          6 18 5 2 2.</_></rects>
      <tilted>0</tilted></_>
    <_>
      <rects>
        <_>
          7 4 4 16 -1.</_>
        <_>
          7 12 4 8 2.</_></rects>
      <tilted>0</tilted></_>
    <_>
      <rects>
        <_>
          7 5 4 10 -1.</_>
        <_>
          9 5 2 10 2.</_></rects>
      <tilted>0</tilted></_>
    <_>
      <rects>
        <_>
          7 6 4 6 -1.</_>
        <_>
          7 8 4 2 3.</_></rects>
      <tilted>0</tilted></_>
    <_>
      <rects>
        <_>
          7 7 3 10 -1.</_>
        <_>
          8 7 1 10 3.</_></rects>
      <tilted>0</tilted></_>
    <_>
      <rects>
        <_>
          7 8 6 6 -1.</_>
        <_>
          7 11 6 3 2.</_></rects>
      <tilted>0</tilted></_>
    <_>
      <rects>
        <_>
          7 9 3 2 -1.</_>
        <_>
          7 10 3 1 2.</_></rects>
      <tilted>0</tilted></_>
    <_>
      <rects>
        <_>
          7 9 9 4 -1.</_>
        <_>
          10 9 3 4 3.</_></rects>
      <tilted>0</tilted></_>
    <_>
      <rects>
        <_>
          7 14 4 1 -1.</_>
        <_>
          9 14 2 1 2.</_></rects>
      <tilted>0</tilted></_>
    <_>
      <rects>
        <_>
          8 14 2 2 -1.</_>
        <_>
          8 14 1 1 2.</_>
        <_>
          9 15 1 1 2.</_></rects>
      <tilted>0</tilted></_>
    <_>
      <rects>
        <_>
          8 15 6 1 -1.</_>
        <_>
          11 15 3 1 2.</_></rects>
      <tilted>0</tilted></_>
    <_>
      <rects>
        <_>
          8 15 3 3 -1.</_>
        <_>
          8 16 3 1 3.</_></rects>
      <tilted>0</tilted></_>
    <_>
      <rects>
        <_>
          8 15 9 2 -1.</_>
        <_>
          11 15 3 2 3.</_></rects>
      <tilted>0</tilted></_>
    <_>
      <rects>
        <_>
          9 6 4 5 -1.</_>
        <_>
          11 6 2 5 2.</_></rects>
      <tilted>0</tilted></_>
    <_>
      <rects>
        <_>
          9 6 9 9 -1.</_>
        <_>
          12 6 3 9 3.</_></rects>
      <tilted>0</tilted></_>
    <_>
      <rects>
        <_>
          9 12 4 4 -1.</_>
        <_>
          9 12 2 2 2.</_>
        <_>
          11 14 2 2 2.</_></rects>
      <tilted>0</tilted></_>
    <_>
      <rects>
        <_>
          10 2 1 8 -1.</_>
        <_>
          10 6 1 4 2.</_></rects>
      <tilted>0</tilted></_>
    <_>
      <rects>
        <_>
          10 12 1 4 -1.</_>
        <_>
          10 14 1 2 2.</_></rects>
      <tilted>0</tilted></_>
    <_>
      <rects>
        <_>
          11 11 1 4 -1.</_>
        <_>
          11 13 1 2 2.</_></rects>
      <tilted>0</tilted></_>
    <_>
      <rects>
        <_>
          12 2 5 3 -1.</_>
        <_>
          12 3 5 1 3.</_></rects>
      <tilted>0</tilted></_>
    <_>
      <rects>
        <_>
          12 12 1 4 -1.</_>
        <_>
          12 14 1 2 2.</_></rects>
      <tilted>0</tilted></_>
    <_>
      <rects>
        <_>
          13 5 2 4 -1.</_>
        <_>
          13 5 1 2 2.</_>
        <_>
          14 7 1 2 2.</_></rects>
      <tilted>0</tilted></_>
    <_>
      <rects>
        <_>
          13 8 2 8 -1.</_>
        <_>
          13 8 1 4 2.</_>
        <_>
          14 12 1 4 2.</_></rects>
      <tilted>0</tilted></_>
    <_>
      <rects>
        <_>
          14 1 2 15 -1.</_>
        <_>
          14 6 2 5 3.</_></rects>
      <tilted>0</tilted></_>
    <_>
      <rects>
        <_>
          14 3 4 9 -1.</_>
        <_>
          16 3 2 9 2.</_></rects>
      <tilted>0</tilted></_>
    <_>
      <rects>
        <_>
          14 5 4 8 -1.</_>
        <_>
          16 5 2 8 2.</_></rects>
      <tilted>0</tilted></_>
    <_>
      <rects>
        <_>
          14 7 4 7 -1.</_>
        <_>
          16 7 2 7 2.</_></rects>
      <tilted>0</tilted></_>
    <_>
      <rects>
        <_>
          14 9 6 2 -1.</_>
        <_>
          17 9 3 2 2.</_></rects>
      <tilted>0</tilted></_>
    <_>
      <rects>
        <_>
          15 6 1 9 -1.</_>
        <_>
          15 9 1 3 3.</_></rects>
      <tilted>0</tilted></_>
    <_>
      <rects>
        <_>
          16 9 4 2 -1.</_>
        <_>
          18 9 2 2 2.</_></rects>
      <tilted>0</tilted></_></features></cascade>
</opencv_storage>
